<?xml version="1.0"?>
<opencv_storage>
<opencv_ml_ann_mlp>
  <format>3</format>
  <layer_sizes>
    400 23 46</layer_sizes>
  <activation_function>SIGMOID_SYM</activation_function>
  <f_param1>2.9999999999999999e-01</f_param1>
  <f_param2>1.</f_param2>
  <min_val>-9.4999999999999996e-01</min_val>
  <max_val>9.4999999999999996e-01</max_val>
  <min_val1>-9.7999999999999998e-01</min_val1>
  <max_val1>9.7999999999999998e-01</max_val1>
  <training_params>
    <train_method>BACKPROP</train_method>
    <dw_scale>1.0000000000000001e-01</dw_scale>
    <moment_scale>1.0000000000000001e-01</moment_scale>
    <term_criteria>
      <epsilon>1.0000000000000000e-03</epsilon>
      <iterations>30</iterations></term_criteria></training_params>
  <input_scale>
    1. -255. 1. -255. 1. -255. 1. -255. 1. -255. 1. -255. 1. -255. 1.
    -255. 1. -255. 1. -255. 1. -255. 1. -255. 1. -255. 1. -255. 1. -255.
    1. -255. 1. -255. 1. -255. 1. -255. 1. -255. 1. -255.
    2.0589800888128566e-02 -4.9288402491242724e+00
    1.8547287413708514e-02 -4.3675313682560928e+00
    1.9507434361818347e-02 -4.6328121050950388e+00
    1.8146427187122890e-02 -4.2536408789258688e+00
    1.5654029179988739e-02 -3.5238172538104742e+00
    1.4663331753998832e-02 -3.2079034631839569e+00
    1.3141219029267785e-02 -2.7618100133523367e+00
    1.2941434430754779e-02 -2.6965110382557982e+00
    1.2691098301045017e-02 -2.6394670353072098e+00
    1.2660902684599519e-02 -2.6470259337498168e+00
    1.2752958485053234e-02 -2.7032335205476166e+00
    1.3049819982431144e-02 -2.8116744965711895e+00
    1.3923275672893927e-02 -3.0601241169679323e+00
    1.5025165432767142e-02 -3.3752792935393026e+00
    1.6194574806291745e-02 -3.7269208702472483e+00
    1.8567599158566872e-02 -4.3815739765694106e+00
    2.1240754318393468e-02 -5.1344998360535339e+00
    2.7136088894859082e-02 -6.7088080642779326e+00 1. -255. 1. -255.
    1.8660094224664969e-02 -4.3852032736407232e+00
    1.4923331660452803e-02 -3.3700321743989403e+00
    1.7291264119728252e-02 -3.9958457433689234e+00
    1.6132096021000002e-02 -3.6714335938714733e+00
    1.3947667670508012e-02 -3.0246366331963528e+00
    1.3077551790082487e-02 -2.7441877817388267e+00
    1.2296502626017386e-02 -2.5044661139793880e+00
    1.2617294388239475e-02 -2.5843839522025851e+00
    1.2502376629457692e-02 -2.5634981757358566e+00
    1.2709745851038038e-02 -2.6433232083107785e+00
    1.3386227278315099e-02 -2.8326828347595248e+00
    1.3713784563181760e-02 -2.9502166605021549e+00
    1.3972256025840041e-02 -3.0281705991167667e+00
    1.3714570447179305e-02 -2.9839148693330984e+00
    1.4369856383998406e-02 -3.1844101568032084e+00
    1.5280470981233198e-02 -3.4666538767802342e+00
    1.7155137084338273e-02 -4.0039493254425205e+00
    2.3420847920801621e-02 -5.7015304859305189e+00 1. -255. 1. -255.
    1.6676596609715759e-02 -3.8261478136379772e+00
    1.3773961888292573e-02 -3.0121738272389660e+00
    1.4995838785224308e-02 -3.3650075440351754e+00
    1.4759087201457950e-02 -3.2843525089293082e+00
    1.3696306451355087e-02 -2.9549542972164664e+00
    1.3474408692964887e-02 -2.8646534296857729e+00
    1.3143729911422767e-02 -2.7656636453053265e+00
    1.3366616945296396e-02 -2.8316945535707019e+00
    1.3453198649411417e-02 -2.8541019426894363e+00
    1.3422955697699676e-02 -2.8448553945027748e+00
    1.3822215449046368e-02 -2.9651596871060995e+00
    1.4341080162769087e-02 -3.1199206951671492e+00
    1.4064974488392175e-02 -3.0518426253165316e+00
    1.4285782238824424e-02 -3.1229092646650334e+00
    1.4903141783918005e-02 -3.2996268668549349e+00
    1.5426795299256410e-02 -3.4606728675752780e+00
    1.5341289656084221e-02 -3.4855009891067104e+00
    1.8586862974931104e-02 -4.4048036814916616e+00 1. -255. 1. -255.
    1.5105257232183013e-02 -3.3559152967646666e+00
    1.2848991210272442e-02 -2.7031260786737761e+00
    1.4429960255226510e-02 -3.1653121643161453e+00
    1.4219831206391699e-02 -3.0966464592806133e+00
    1.3879584924336505e-02 -2.9706958381728703e+00
    1.2991943192203669e-02 -2.7069278508051657e+00
    1.3123382189188076e-02 -2.7296977302611789e+00
    1.3079609492474324e-02 -2.7188697987741093e+00
    1.2838489984961201e-02 -2.6412625446060676e+00
    1.2720950533817759e-02 -2.6145646174558546e+00
    1.3135385816253897e-02 -2.7386536992038892e+00
    1.3075832793154340e-02 -2.7337927877882415e+00
    1.3112539589946563e-02 -2.7601040671212083e+00
    1.4214753331548768e-02 -3.0834148500592753e+00
    1.4962511994227592e-02 -3.3083610270436630e+00
    1.5194566662446200e-02 -3.4013632043885651e+00
    1.5254348396044674e-02 -3.4245945825866397e+00
    1.6598198077781099e-02 -3.8454416642288853e+00 1. -255. 1. -255.
    1.4342685340134468e-02 -3.1267802355510885e+00
    1.2698514076699401e-02 -2.6300665457282886e+00
    1.4064277356412526e-02 -3.0218934371211845e+00
    1.3743688836490669e-02 -2.8988666535276950e+00
    1.3070139275502603e-02 -2.6994270085928047e+00
    1.2417245926382110e-02 -2.4965466803274667e+00
    1.2434355110221958e-02 -2.4779885675026110e+00
    1.2419576509325927e-02 -2.4735962537306975e+00
    1.2191184114659113e-02 -2.4276463942965663e+00
    1.2514946591274688e-02 -2.5341678591105916e+00
    1.3075520559153953e-02 -2.6956606884930561e+00
    1.2849425671532740e-02 -2.6705017240214635e+00
    1.3207426790766558e-02 -2.7894315076477940e+00
    1.4130197631319235e-02 -3.0623210049162548e+00
    1.5010002233387009e-02 -3.3292707040686591e+00
    1.6312596940794285e-02 -3.7067539574574004e+00
    1.5661364531522642e-02 -3.5249850265769220e+00
    1.4934357382174529e-02 -3.3911120647760611e+00 1. -255. 1. -255.
    1.3614680152942121e-02 -2.9135356333034603e+00
    1.2788534123237130e-02 -2.6218163022304362e+00
    1.3704920657339579e-02 -2.9040726872902569e+00
    1.3028730271334828e-02 -2.7037504292340802e+00
    1.2590763193588390e-02 -2.5400386696950545e+00
    1.2133194810304716e-02 -2.3935680932497259e+00
    1.2364887346461489e-02 -2.4282219531360840e+00
    1.2432935990341853e-02 -2.4752407925710975e+00
    1.2558108183702019e-02 -2.5350616186676356e+00
    1.2996297887089206e-02 -2.6860804978678958e+00
    1.3308798135643557e-02 -2.7929322988404088e+00
    1.3504849945487077e-02 -2.8578258853773031e+00
    1.3804038054779323e-02 -2.9630247649470296e+00
    1.4032411052457153e-02 -3.0559357716661331e+00
    1.5129976764778851e-02 -3.3676828543106150e+00
    1.6095830220724704e-02 -3.6555170032417350e+00
    1.5330592475563115e-02 -3.4361256772478335e+00
    1.4273844419169911e-02 -3.2037892039599374e+00 1. -255. 1. -255.
    1.3403611783094392e-02 -2.8476847381778585e+00
    1.2655645213092035e-02 -2.5901208566747371e+00
    1.3707477368678091e-02 -2.9114503137889192e+00
    1.2907850954094809e-02 -2.6655834642027876e+00
    1.2455810746766506e-02 -2.4695865189119455e+00
    1.1950793930911762e-02 -2.3123435297000330e+00
    1.2249868886047052e-02 -2.4112162572599476e+00
    1.2749683108237266e-02 -2.5829139541739328e+00
    1.3287460287883203e-02 -2.7684943453902875e+00
    1.3626948339442987e-02 -2.9006322235338344e+00
    1.3566566432830973e-02 -2.9013282018037976e+00
    1.3687965502797274e-02 -2.9382527235411140e+00
    1.3815599371748088e-02 -2.9778503292805962e+00
    1.4880155679197633e-02 -3.2847555483854531e+00
    1.6018129829279106e-02 -3.6301678699967033e+00
    1.6785765971636203e-02 -3.8529974229702559e+00
    1.4990388906634372e-02 -3.3529784974716406e+00
    1.3403436932261042e-02 -2.9578996001177411e+00 1. -255. 1. -255.
    1.3155135013284164e-02 -2.7892318002513719e+00
    1.2741747188423150e-02 -2.6225174861014162e+00
    1.3562596180121461e-02 -2.8826531599324938e+00
    1.2948122739487478e-02 -2.6703814264618209e+00
    1.2359241969799350e-02 -2.4643844865268041e+00
    1.2266597332957853e-02 -2.4395808775786576e+00
    1.2863442405988152e-02 -2.6289408741191216e+00
    1.3305401001108037e-02 -2.7741587538601546e+00
    1.3865123533732291e-02 -2.9705243490126052e+00
    1.3965823085686927e-02 -3.0287194758169735e+00
    1.4080708432406313e-02 -3.0568422140625318e+00
    1.4287945440110538e-02 -3.1053110012026672e+00
    1.3835476042179044e-02 -2.9862551643682913e+00
    1.4578066279821920e-02 -3.2072126112989436e+00
    1.5346939912284321e-02 -3.4488510806619499e+00
    1.6452657445542012e-02 -3.7581231670400306e+00
    1.5242513814825408e-02 -3.4138194288470101e+00
    1.2860728186149356e-02 -2.8085202296703460e+00 1. -255. 1. -255.
    1.3106510189029670e-02 -2.7782211556647645e+00
    1.2802506718885682e-02 -2.6389139142766767e+00
    1.3270355459885240e-02 -2.8028144675230657e+00
    1.2419266208548194e-02 -2.5416190286222688e+00
    1.2695355820922629e-02 -2.6067870881893422e+00
    1.2681572925191779e-02 -2.6022036269757653e+00
    1.2893124868155876e-02 -2.6777002296832566e+00
    1.3411166657416880e-02 -2.8450623875304921e+00
    1.4526859181238944e-02 -3.1694069759054031e+00
    1.4583501809716517e-02 -3.2078441239418920e+00
    1.4637614176449768e-02 -3.2162847779108472e+00
    1.4355314948844991e-02 -3.1344455704326113e+00
    1.3775022460266044e-02 -2.9710267899311806e+00
    1.4438789865573214e-02 -3.1684417703666621e+00
    1.5244192127824241e-02 -3.4115176400146496e+00
    1.5525326697761726e-02 -3.5075223084105840e+00
    1.4540417232442187e-02 -3.2142161265161682e+00
    1.2719244880480689e-02 -2.7516593170173129e+00 1. -255. 1. -255.
    1.2787565467701878e-02 -2.6940564936800668e+00
    1.2672355391924550e-02 -2.6051001756758145e+00
    1.3045874087595897e-02 -2.7500135364735301e+00
    1.2581177781248490e-02 -2.6029800420127582e+00
    1.2852121636287232e-02 -2.6728836760935173e+00
    1.2785288601612637e-02 -2.6751604340746411e+00
    1.3575248917355771e-02 -2.8945617924157014e+00
    1.4108803909539414e-02 -3.0698364944755712e+00
    1.5084654814318107e-02 -3.3595231493335000e+00
    1.4988374137598468e-02 -3.3365880335084257e+00
    1.4832711285169132e-02 -3.2806281429997362e+00
    1.4533058932016360e-02 -3.1923317250067136e+00
    1.4154498725519125e-02 -3.1000075365253470e+00
    1.4599597378342067e-02 -3.2271902192742412e+00
    1.5396235840244124e-02 -3.4647287493950416e+00
    1.5919005576983305e-02 -3.6098283111705971e+00
    1.3991943227877692e-02 -3.0600562342975834e+00
    1.2432179723023252e-02 -2.6561622243015766e+00 1. -255. 1. -255.
    1.2984250123637291e-02 -2.7514811530476968e+00
    1.2740692943784633e-02 -2.6241063552921711e+00
    1.3282564957435085e-02 -2.8104059440895082e+00
    1.2769510486461908e-02 -2.6650801179408163e+00
    1.3155766923025459e-02 -2.7639465519463786e+00
    1.3541186139853631e-02 -2.8964420528979873e+00
    1.3506612767995297e-02 -2.9054368347251378e+00
    1.4621798359185124e-02 -3.2304574845311138e+00
    1.6179220232041349e-02 -3.6817714937776458e+00
    1.6242048233393144e-02 -3.6944586617282131e+00
    1.5332052029704273e-02 -3.4427722866126258e+00
    1.5419120278678228e-02 -3.4511745404271466e+00
    1.5113032167875372e-02 -3.3806407365155930e+00
    1.4760979832834481e-02 -3.2889003343711694e+00
    1.5378480203822157e-02 -3.4725811833463771e+00
    1.5302731218559924e-02 -3.4583640285033477e+00
    1.3798875549614877e-02 -2.9999715366640105e+00
    1.2278960797610075e-02 -2.6055687878598199e+00 1. -255. 1. -255.
    1.2818447898391197e-02 -2.7124727471110441e+00
    1.2629932738785349e-02 -2.5904651000261207e+00
    1.3953868394275985e-02 -3.0043467349785438e+00
    1.3481608712549409e-02 -2.8742672543775232e+00
    1.3327418671764912e-02 -2.8309233563084431e+00
    1.3574972190262014e-02 -2.9092522900950524e+00
    1.4096819257839351e-02 -3.0855363153632820e+00
    1.5233766574541660e-02 -3.4143374789752508e+00
    1.6457356304235296e-02 -3.7626167503480912e+00
    1.6377704661062888e-02 -3.7376343088538886e+00
    1.6172589653096439e-02 -3.6764304271097883e+00
    1.5837588369959930e-02 -3.5970261846773126e+00
    1.5864155022126049e-02 -3.6102678355135724e+00
    1.5705177268814666e-02 -3.5528456867650826e+00
    1.5196023991618002e-02 -3.4304627743060467e+00
    1.5567007210196519e-02 -3.5326141779458919e+00
    1.4204744245036994e-02 -3.1178734260522742e+00
    1.2179143130720493e-02 -2.5739506998057133e+00 1. -255. 1. -255.
    1.2719188273435792e-02 -2.6761559233038970e+00
    1.2677556283735599e-02 -2.5987557266599817e+00
    1.3966900880135972e-02 -3.0070008887060737e+00
    1.3811708488428486e-02 -2.9906432339087727e+00
    1.3623844811167789e-02 -2.9175582131331570e+00
    1.3656765528286889e-02 -2.9495288415579748e+00
    1.4465885135086412e-02 -3.1973568543164927e+00
    1.5195593506834561e-02 -3.4022471387217590e+00
    1.5063451660706852e-02 -3.3618218456757014e+00
    1.5540023630513679e-02 -3.4983430935731863e+00
    1.5319800248634805e-02 -3.4451966093055963e+00
    1.4902023891103492e-02 -3.3405802165278473e+00
    1.4939795159979249e-02 -3.3507297362957109e+00
    1.4858303490905037e-02 -3.3166252843161543e+00
    1.4560046704683322e-02 -3.2403827073128961e+00
    1.5564913846719994e-02 -3.5165809853894485e+00
    1.4067950013938358e-02 -3.0761101830477733e+00
    1.2273785335979301e-02 -2.5953666192905205e+00 1. -255. 1. -255.
    1.2392553091698920e-02 -2.5792728511084193e+00
    1.2890616986830201e-02 -2.6490554184900938e+00
    1.3616183795266435e-02 -2.9278110404572990e+00
    1.4164472862075322e-02 -3.0859829101280414e+00
    1.3899391644367499e-02 -3.0095325381210012e+00
    1.4181535436626690e-02 -3.1037523480051998e+00
    1.5300289077413523e-02 -3.4331852999836285e+00
    1.5224594762601334e-02 -3.4018761252020226e+00
    1.3889584185751029e-02 -3.0239194899287947e+00
    1.4775693352159442e-02 -3.2723535340592487e+00
    1.4553725736577653e-02 -3.2199548698562279e+00
    1.4818183665731059e-02 -3.2927163789193470e+00
    1.4782546220594266e-02 -3.2903312737499162e+00
    1.4461647203494821e-02 -3.2005071426054390e+00
    1.4069008820532471e-02 -3.0912059162852539e+00
    1.4395340224983878e-02 -3.1741725196089452e+00
    1.3733074009847071e-02 -2.9507360489696888e+00
    1.3077534743897746e-02 -2.8141262721159999e+00 1. -255. 1. -255.
    1.2958275747923818e-02 -2.7381062016680384e+00
    1.2687658216442920e-02 -2.5844539131968727e+00
    1.3417818310134057e-02 -2.8667868879687157e+00
    1.3915487142494519e-02 -3.0176762404505548e+00
    1.4287142995661833e-02 -3.1214612134934998e+00
    1.4923147855049770e-02 -3.3168577722142882e+00
    1.5383471467531031e-02 -3.4574084584641773e+00
    1.5146602768166588e-02 -3.3891248096513826e+00
    1.3823831003571386e-02 -3.0013941253275838e+00
    1.4084875658566566e-02 -3.0694495898226100e+00
    1.4235262948201804e-02 -3.1143784493180706e+00
    1.4356912752058061e-02 -3.1410865196629913e+00
    1.3980311347176149e-02 -3.0518776535036016e+00
    1.4335137015697826e-02 -3.1355743807897269e+00
    1.4146542970720832e-02 -3.0864927453518711e+00
    1.3567624733596488e-02 -2.9110223711022587e+00
    1.3628729530322266e-02 -2.8982204410379708e+00
    1.4858760222435178e-02 -3.2900266884515972e+00 1. -255. 1. -255.
    1.4311417259299127e-02 -3.1300874029132926e+00
    1.2530509157229391e-02 -2.5691193964118231e+00
    1.3547569184914589e-02 -2.8940199487865113e+00
    1.4011089617359460e-02 -3.0257739959840038e+00
    1.4370458081235589e-02 -3.1506292139321119e+00
    1.5568885842940581e-02 -3.4822588510865136e+00
    1.5411695620242496e-02 -3.4680469602625852e+00
    1.5721639504843385e-02 -3.5376354729118002e+00
    1.4518611621672438e-02 -3.1778968361500182e+00
    1.4407247642184757e-02 -3.1523245761721665e+00
    1.4020102661420257e-02 -3.0355533841921929e+00
    1.3362222408446126e-02 -2.8377061245721200e+00
    1.3550693986665604e-02 -2.8853374873685449e+00
    1.3516036646658800e-02 -2.8699952215515294e+00
    1.3479900806544523e-02 -2.8490649478597496e+00
    1.3546081945179818e-02 -2.8672343797269089e+00
    1.3804865293300803e-02 -2.9433533355306989e+00
    1.6266620375118390e-02 -3.6692827753463795e+00 1. -255. 1. -255.
    1.6742163481327503e-02 -3.8322812208758656e+00
    1.3363956966649116e-02 -2.8511595459220818e+00
    1.3774473907434385e-02 -2.9692555399950504e+00
    1.3867959806422541e-02 -2.9812435559685890e+00
    1.4035356743002703e-02 -3.0168938295794123e+00
    1.4395027072055462e-02 -3.1106026238781972e+00
    1.3978734387027942e-02 -3.0022431728550063e+00
    1.3767864081801764e-02 -2.9331057639870477e+00
    1.3634491797844487e-02 -2.8893503653202584e+00
    1.3612493367690590e-02 -2.8613461058885616e+00
    1.3154237576385988e-02 -2.6972935727391336e+00
    1.3133069357940801e-02 -2.6694676479061368e+00
    1.3061716465332690e-02 -2.6472578290790882e+00
    1.3123662051964743e-02 -2.6807590354747926e+00
    1.3455979085239090e-02 -2.7806488258362116e+00
    1.3546829753629969e-02 -2.8576036077865847e+00
    1.4175290119675828e-02 -3.0627316727660112e+00
    1.6791315896710204e-02 -3.8105336227338658e+00 1. -255. 1. -255.
    2.0184743277498918e-02 -4.8187564184893450e+00
    1.6959630755440446e-02 -3.8988421406157014e+00
    1.5436963176125982e-02 -3.4735784718300282e+00
    1.4222965977315937e-02 -3.1272344489237098e+00
    1.3223404236904990e-02 -2.8220181968102738e+00
    1.2392143930945463e-02 -2.5637029000999942e+00
    1.1944528308385676e-02 -2.3937977250103959e+00
    1.1679588179757189e-02 -2.2758033033984093e+00
    1.1316585784745257e-02 -2.1447390189436772e+00
    1.1263855653396547e-02 -2.0985983307555807e+00
    1.1175506752337810e-02 -2.0488639598978420e+00
    1.1236790058263070e-02 -2.0884453724242995e+00
    1.1633157431800413e-02 -2.2311687848958210e+00
    1.2239630938602549e-02 -2.4626243880041709e+00
    1.3143050307204180e-02 -2.7681378263760554e+00
    1.3784669769035099e-02 -2.9883066392129329e+00
    1.4447375135145627e-02 -3.1970470807214757e+00
    1.4680812834119152e-02 -3.2954275887231330e+00 1. -255. 1. -255. 1.
    -255. 1. -255. 1. -255. 1. -255. 1. -255. 1. -255. 1. -255. 1. -255.
    1. -255. 1. -255. 1. -255. 1. -255. 1. -255. 1. -255. 1. -255. 1.
    -255. 1. -255. 1. -255. 1. -255.</input_scale>
  <output_scale>
    5.2631578947368418e-01 4.9999999999999994e-01 5.2631578947368418e-01
    4.9999999999999994e-01 5.2631578947368418e-01 4.9999999999999994e-01
    5.2631578947368418e-01 4.9999999999999994e-01 5.2631578947368418e-01
    4.9999999999999994e-01 5.2631578947368418e-01 4.9999999999999994e-01
    5.2631578947368418e-01 4.9999999999999994e-01 5.2631578947368418e-01
    4.9999999999999994e-01 5.2631578947368418e-01 4.9999999999999994e-01
    5.2631578947368418e-01 4.9999999999999994e-01 5.2631578947368418e-01
    4.9999999999999994e-01 5.2631578947368418e-01 4.9999999999999994e-01
    5.2631578947368418e-01 4.9999999999999994e-01 5.2631578947368418e-01
    4.9999999999999994e-01 5.2631578947368418e-01 4.9999999999999994e-01
    5.2631578947368418e-01 4.9999999999999994e-01 5.2631578947368418e-01
    4.9999999999999994e-01 5.2631578947368418e-01 4.9999999999999994e-01
    5.2631578947368418e-01 4.9999999999999994e-01 5.2631578947368418e-01
    4.9999999999999994e-01 5.2631578947368418e-01 4.9999999999999994e-01
    5.2631578947368418e-01 4.9999999999999994e-01 5.2631578947368418e-01
    4.9999999999999994e-01 5.2631578947368418e-01 4.9999999999999994e-01
    5.2631578947368418e-01 4.9999999999999994e-01 5.2631578947368418e-01
    4.9999999999999994e-01 5.2631578947368418e-01 4.9999999999999994e-01
    5.2631578947368418e-01 4.9999999999999994e-01 5.2631578947368418e-01
    4.9999999999999994e-01 5.2631578947368418e-01 4.9999999999999994e-01
    5.2631578947368418e-01 4.9999999999999994e-01 5.2631578947368418e-01
    4.9999999999999994e-01 5.2631578947368418e-01 4.9999999999999994e-01
    5.2631578947368418e-01 4.9999999999999994e-01 5.2631578947368418e-01
    4.9999999999999994e-01 5.2631578947368418e-01 4.9999999999999994e-01
    5.2631578947368418e-01 4.9999999999999994e-01 5.2631578947368418e-01
    4.9999999999999994e-01 5.2631578947368418e-01 4.9999999999999994e-01
    5.2631578947368418e-01 4.9999999999999994e-01 5.2631578947368418e-01
    4.9999999999999994e-01 5.2631578947368418e-01 4.9999999999999994e-01
    5.2631578947368418e-01 4.9999999999999994e-01 5.2631578947368418e-01
    4.9999999999999994e-01 5.2631578947368418e-01 4.9999999999999994e-01
    5.2631578947368418e-01 4.9999999999999994e-01</output_scale>
  <inv_output_scale>
    1.8999999999999999e+00 -9.4999999999999996e-01
    1.8999999999999999e+00 -9.4999999999999996e-01
    1.8999999999999999e+00 -9.4999999999999996e-01
    1.8999999999999999e+00 -9.4999999999999996e-01
    1.8999999999999999e+00 -9.4999999999999996e-01
    1.8999999999999999e+00 -9.4999999999999996e-01
    1.8999999999999999e+00 -9.4999999999999996e-01
    1.8999999999999999e+00 -9.4999999999999996e-01
    1.8999999999999999e+00 -9.4999999999999996e-01
    1.8999999999999999e+00 -9.4999999999999996e-01
    1.8999999999999999e+00 -9.4999999999999996e-01
    1.8999999999999999e+00 -9.4999999999999996e-01
    1.8999999999999999e+00 -9.4999999999999996e-01
    1.8999999999999999e+00 -9.4999999999999996e-01
    1.8999999999999999e+00 -9.4999999999999996e-01
    1.8999999999999999e+00 -9.4999999999999996e-01
    1.8999999999999999e+00 -9.4999999999999996e-01
    1.8999999999999999e+00 -9.4999999999999996e-01
    1.8999999999999999e+00 -9.4999999999999996e-01
    1.8999999999999999e+00 -9.4999999999999996e-01
    1.8999999999999999e+00 -9.4999999999999996e-01
    1.8999999999999999e+00 -9.4999999999999996e-01
    1.8999999999999999e+00 -9.4999999999999996e-01
    1.8999999999999999e+00 -9.4999999999999996e-01
    1.8999999999999999e+00 -9.4999999999999996e-01
    1.8999999999999999e+00 -9.4999999999999996e-01
    1.8999999999999999e+00 -9.4999999999999996e-01
    1.8999999999999999e+00 -9.4999999999999996e-01
    1.8999999999999999e+00 -9.4999999999999996e-01
    1.8999999999999999e+00 -9.4999999999999996e-01
    1.8999999999999999e+00 -9.4999999999999996e-01
    1.8999999999999999e+00 -9.4999999999999996e-01
    1.8999999999999999e+00 -9.4999999999999996e-01
    1.8999999999999999e+00 -9.4999999999999996e-01
    1.8999999999999999e+00 -9.4999999999999996e-01
    1.8999999999999999e+00 -9.4999999999999996e-01
    1.8999999999999999e+00 -9.4999999999999996e-01
    1.8999999999999999e+00 -9.4999999999999996e-01
    1.8999999999999999e+00 -9.4999999999999996e-01
    1.8999999999999999e+00 -9.4999999999999996e-01
    1.8999999999999999e+00 -9.4999999999999996e-01
    1.8999999999999999e+00 -9.4999999999999996e-01
    1.8999999999999999e+00 -9.4999999999999996e-01
    1.8999999999999999e+00 -9.4999999999999996e-01
    1.8999999999999999e+00 -9.4999999999999996e-01
    1.8999999999999999e+00 -9.4999999999999996e-01</inv_output_scale>
  <weights>
    <_>
      -4.7504818525171463e-03 4.6364992922844645e-03
      2.7542537410404945e-03 -1.9516291138343847e-03
      -3.6447626367252755e-03 -4.9141218502341292e-03
      2.7901884809901595e-03 3.6696261353952892e-03
      3.8670733869841385e-04 -8.7501657260362559e-04
      -5.7527328748933741e-04 -8.0093027910168484e-04
      4.4848168217932419e-03 -2.9119623136009704e-03
      1.3648782418380812e-03 2.9805089319823105e-03
      -3.8858060858721383e-03 4.4696300174219749e-03
      -3.7411222504942724e-03 -1.5931496246177784e-03
      -5.0427955945515981e-03 -1.0152260833195972e-03
      1.3933613991779841e-03 1.0145719327966148e-03
      4.0674729190456121e-03 -4.0474313795193210e-04
      4.3705278290597522e-03 3.4428752715829052e-03
      -4.4221628059526426e-03 -3.5469276986393335e-03
      -3.5018149593240033e-03 2.8305782888635857e-03
      3.3338164125347935e-03 -1.6331214878263802e-03
      -9.6830105551926060e-04 -3.3215140043306064e-03
      -2.0590218116450429e-05 7.7519062752116473e-04
      2.5080184387206992e-04 4.5473010003480559e-03
      2.6758887981851685e-03 -3.9293800001763794e-03
      2.6497065858880294e-03 4.4706450368379985e-03
      2.0685010456676159e-03 1.4870309569881210e-03
      -2.5130204740628553e-03 -3.8897047825695165e-03
      1.7735442505538697e-03 5.9612396970038146e-04
      -2.5754553218222515e-03 -3.5800148330968258e-03
      2.9256345466057913e-03 3.1249602921937913e-03
      2.0646863434494104e-03 -2.5134460523329864e-03
      3.7820964793552113e-03 3.2603114774870799e-03
      -3.7197399027292201e-03 -1.7480010768431129e-03
      -4.6727275343295387e-03 -1.5773279318605994e-03
      -3.3756221916730893e-03 -3.9752044895567217e-04
      4.3631245706940037e-03 -3.6746329130655990e-03
      -4.1871907825794608e-03 4.1017299798568937e-03
      -1.8816741545364215e-03 -4.8353141138720414e-03
      -1.8969633208577425e-03 -1.9598700914506750e-03
      7.0955775719856653e-04 1.8904213613086234e-03
      -4.1499321964780901e-03 1.0840827993604456e-04
      -4.9273361370407286e-03 -4.6820210281002684e-03
      1.2793129567115452e-03 -1.3795388054083982e-03
      -1.1238117597587827e-03 1.3485292774794327e-03
      2.5581426545368624e-03 -1.2590022168012978e-03
      -3.7828913789856784e-03 1.8534278936847262e-03
      -1.7716481739429167e-03 -4.5514156074197131e-03
      1.1654904531820333e-03 -2.9153487086076317e-03
      -2.8079889388884448e-03 3.1388759188663152e-03
      -4.3499327389579139e-03 1.1061682141067640e-03
      4.1934673300703948e-03 2.9805720770430810e-03
      3.5845322366947212e-03 -4.8151827733576517e-03
      -3.7270827657324515e-03 -4.9446468866678576e-03
      -4.2175943607738768e-03 1.3309724583871374e-03
      -5.3517329284615987e-04 3.2454803801186248e-03
      -1.9332535557291025e-03 -2.5571150771518309e-03
      -3.8443555064699123e-03 -8.8689302336763566e-04
      3.2381555405578437e-03 -1.0627767905279082e-03
      4.4134115137629175e-03 -1.7115812563886317e-03
      -1.7672260009672083e-03 -4.8244319997085155e-04
      1.1843017881916179e-03 -3.2274290656704317e-03
      -3.1680589378867341e-03 -2.2088958644158395e-03
      -4.2765389849418704e-04 4.8725033043956270e-03
      -1.9840365088867776e-03 -2.9412157394814609e-03
      -7.5282876402337168e-04 4.7619627940852114e-03
      2.0338451244550672e-03 -2.6461633433062905e-03
      2.8753380196897388e-03 2.3509320737951480e-03
      -2.6821092599236414e-03 1.9534439289932391e-03
      4.2286471868408348e-03 -7.8313693465835828e-05
      -4.2822254891386503e-03 -9.0057110067685354e-04
      -3.6079692760730372e-03 -6.5072644086551306e-04
      -3.8467913271630449e-03 3.4509729114840714e-03
      3.8232354738360111e-03 8.2829376943518442e-04
      -1.2885251859888842e-03 -4.6297774109361270e-03
      -9.8097927002343643e-04 3.6985963019017004e-03
      1.6632647561260106e-03 -2.2396802152562945e-03
      -2.6957046974012667e-03 -8.6502370751743074e-05
      4.6169440762029871e-03 -3.9907323842842887e-03
      1.1477960102043061e-03 1.8630594447985134e-03
      7.7558460945195749e-04 2.5514324688523885e-03
      4.5799092271642831e-03 -5.9330291375876254e-04
      -1.7210775187776158e-03 1.0709041493053857e-03
      2.9125345443912071e-03 1.6962494526180191e-04
      2.3929434964854151e-03 -2.6448440073392216e-03
      -1.6576930972102989e-03 1.5832621967861826e-03
      7.2447786242952575e-04 -2.3174121471529045e-03
      -4.2246438718739716e-03 4.0023911619594356e-03
      -1.9789427570471212e-03 2.3635504050952606e-03
      2.6758611708710234e-03 -3.6186301738505339e-04
      1.1529095245346437e-03 -1.1239730777846233e-03
      -1.7797165478971139e-03 -3.0894731546179956e-03
      2.2784885262184117e-03 3.1959220859763748e-03
      -3.3723342673269625e-03 -1.6807740742759614e-03
      -1.7685657228712630e-03 -3.6902652225075400e-03
      -2.4546088167405181e-03 -1.2763035221090414e-03
      -2.9790999141335052e-03 -1.6226148684665620e-03
      4.4361633053176478e-03 -4.7180792215195328e-03
      1.9876895870605429e-03 -2.9021387736748354e-03
      -1.6487720026549101e-03 -4.2206855762643757e-03
      -2.5814403808474850e-03 2.5784550912574429e-03
      -4.1628233479535717e-03 2.1171946525895094e-04
      -4.8646629656366102e-03 -3.3063262149322275e-03
      -4.6893617984937489e-03 1.6438411526177460e-03
      -3.2559747063458508e-03 -1.4720442594488915e-03
      -1.5313318529477338e-04 -1.9003328736932324e-03
      -4.3659398850083757e-03 -4.0473157065363842e-03
      -2.3098277276640557e-03 3.6347726168623885e-03
      2.4476344704123590e-03 1.0610536974873434e-03
      -4.1508115891805323e-04 -3.1018367111841855e-03
      3.9702830044304714e-03 1.8336874886788288e-04
      3.3417255921640576e-03 3.4321097691060441e-03
      2.1525791685170394e-04 -3.6688973479151758e-03
      -2.8892373254099579e-03 -3.0022000737793689e-03
      -3.3166960068938493e-03 -2.4003180664792633e-03
      1.7555677725138868e-03 -3.3080071683350715e-03
      1.3954109247831671e-03 3.1757036049681470e-03
      5.5167759015704095e-04 8.6338695059323952e-05
      1.1397333015312086e-03 -3.8952437342806637e-03
      3.9414441793059222e-03 1.3646904764520727e-03
      -3.0314886949787826e-03 -1.8058216313354132e-03
      1.8994460296232897e-03 4.3445241844138546e-03
      2.3422963940495428e-03 3.4920889998821133e-03
      -4.1419480233286666e-03 -4.9731940959730197e-03
      2.9372798840876279e-03 4.2146132611627363e-03
      -3.7347768097867975e-03 1.8389013234312757e-03
      3.6918050977286267e-03 -1.8617402704710377e-03
      -2.8083412112254839e-03 -2.5627246094152680e-03
      2.2346331628960770e-03 -4.6379088902865091e-03
      -4.2716535358761284e-03 4.6286214267798114e-03
      2.1038449631711649e-03 5.5869145601699277e-04
      4.7677499714126681e-03 -1.9272529825333188e-03
      -4.4086021839258808e-03 4.6860408572778770e-03
      1.4969880157303508e-04 -1.5008765520450225e-03
      -3.4157644692531714e-03 4.8462308287230242e-03
      -4.5556999292792697e-03 -3.2419042778249357e-03
      1.2528147962166478e-03 -2.7410502594022684e-03
      -1.9515758292705564e-03 1.0366417558306420e-03
      9.2052584788555327e-04 4.8441459410460599e-03
      2.8081009207128337e-04 3.4759485056883870e-03
      -2.4938266489363850e-04 -2.6770177676023544e-03
      -8.2358200262117596e-04 4.5887742219188317e-03
      -3.4669918064514772e-03 3.5010480713006028e-04
      -8.7756658796251118e-05 -2.5404441318068773e-04
      3.5666171814413231e-03 1.4884729687742752e-03
      4.3738880354711280e-03 -4.3885465536117781e-03
      -4.9283686084852707e-03 2.3109272523064968e-03
      -1.9875305631435448e-03 1.7189890038341715e-03
      -2.3226428698250068e-04 4.6502661452438778e-03
      3.3907577902684491e-03 2.0347826711051421e-03
      -4.2853628844120358e-03 1.6300928271819610e-03
      -1.0591990502397670e-03 -3.9102850994668908e-03
      3.0725507078022750e-03 -4.6748813579855688e-03
      4.3680661655662589e-03 -3.0404459666259240e-03
      -3.5206015195083590e-03 -2.6255915520501886e-03
      8.4926156439457136e-04 4.3190997718940555e-03
      -3.6141603126770465e-03 -2.9271605242722903e-03
      3.8608018972620972e-03 3.9246844944029712e-03
      2.8874249442846010e-03 1.2899504353435260e-03
      -2.5679703377142959e-03 -1.1068342911238315e-03
      2.0022530513645860e-03 -3.5341766014275293e-04
      -4.0579227307018056e-05 1.2039459572142151e-03
      3.1450982983403653e-03 1.0768437635394485e-03
      -2.0398836705673999e-03 -5.1069919308183867e-03
      2.9155657283701946e-03 -1.8319661180724828e-03
      -2.3059882311116586e-03 -2.4657302963679985e-03
      3.6548344004236409e-03 -3.2891512136359283e-04
      -3.5728889802302708e-03 -6.3637499238942193e-04
      3.1100933874820724e-03 -1.9725179454704502e-03
      -4.8683557480867336e-03 9.1441019684118880e-04
      -2.1473739826682512e-03 3.7341299707830925e-03
      -3.7997964018529260e-04 1.6885810417746167e-03
      3.6902090513998760e-03 4.8839854122924749e-03
      -8.9760235922619919e-04 -4.8714319585330575e-03
      4.7419642834586649e-03 -1.4714890720429633e-03
      -1.4255048320820092e-03 6.3344335699709505e-06
      4.0654639323878085e-03 -3.5162909615905260e-03
      3.2467937718893749e-03 3.3576395384542377e-03
      -1.0655703282005441e-03 1.6386975407628296e-03
      -3.1919502846615449e-04 4.2913037253253929e-05
      -1.4234428694668612e-03 2.0651769031514119e-03
      2.7693278390457121e-03 1.9240828801211991e-03
      3.1640642474250924e-03 2.0760605434799258e-03
      -3.8839254038077497e-03 1.2052762976024478e-03
      -2.1997138735077569e-03 2.7429317400689468e-03
      8.8278871767972903e-04 1.3087325499572373e-03
      -9.6408381032222926e-04 -1.5607825729148761e-03
      -1.7144907814701390e-03 -3.0738390567171156e-04
      -2.7968922527089996e-03 -4.9982990533964352e-03
      -4.5702346637535802e-03 -6.3506639457518404e-04
      4.5780983144785101e-03 -4.2263108184461976e-03
      3.1383195893662665e-04 -3.3212835821681526e-03
      4.0264113796092283e-03 -4.3833574542594895e-03
      9.7297181933583973e-04 -2.5432514280903568e-03
      -7.1145105820497718e-04 5.8236835872566505e-04
      3.8126204826281116e-03 -2.3559926308085550e-03
      2.9029718018761430e-03 -2.5117632562167828e-03
      1.2906146774862854e-03 3.0688018473402977e-03
      3.7066456753705233e-04 4.9212605286269402e-03
      1.6651549711190652e-03 -1.4818635714530489e-04
      6.2526152833968450e-04 -4.7972549119858574e-03
      -1.4732929309724709e-03 -3.8867446734852612e-03
      1.6158868005758157e-03 -2.1022927471628103e-03
      8.7058962063532043e-04 6.2932835815376073e-04
      -2.8648360691390126e-03 4.8673211563764879e-04
      -2.1636562547402986e-03 -1.0247747392771167e-03
      3.4372889772193581e-03 2.6485473326849754e-04
      4.8877495667687728e-03 2.5301077874818616e-03
      -6.1445362766044819e-04 4.3307536904471887e-03
      7.9635308181734844e-04 5.3964802672032430e-04
      -1.8079818782194260e-03 -2.9885691766870660e-03
      -2.2409841790414571e-03 -2.3302960575548254e-03
      -4.0474248572151409e-03 -2.0788712409186600e-03
      4.3060783578231206e-03 3.5255533263474402e-03
      -4.6292028169992831e-03 -4.2542684890665211e-03
      -8.6784092484434817e-04 -7.9626796465285176e-04
      1.4412949687201077e-03 -2.5288055660672450e-03
      -3.3194371346699572e-03 2.7780722763338147e-03
      -3.7035223072897938e-03 -4.2034104067982404e-03
      4.9727956004222353e-04 4.6760708182638465e-03
      -2.5665552407094423e-03 -1.7894822399124898e-03
      6.7146804551065562e-04 -1.8979754335809529e-03
      -3.0972495097812518e-03 -1.6139016085264550e-03
      -3.3688700422081848e-03 1.9918617746862025e-03
      9.2810587554388840e-04 -3.6648004940218258e-03
      2.9990523591980427e-03 -3.9703710531116976e-03
      3.1653071584000097e-03 4.4616728390652781e-03
      4.1898000223934201e-03 -4.6748275274790868e-03
      -3.3295229315042897e-04 -1.7607623686087272e-03
      3.8595164073939796e-03 -3.9699658042651352e-03
      -2.4061874510806032e-03 4.0289589917295822e-03
      -4.0233343282499003e-03 3.5577421657787284e-03
      3.1890842264380211e-03 -1.4862321329199288e-03
      -7.4483701696101943e-04 4.5897429095107878e-03
      2.9615707661703535e-03 -3.6566049012702073e-03
      -3.8381947121387955e-03 -4.3082594832599226e-03
      -2.0085836418033314e-03 3.3117392954124395e-03
      2.5726911805359983e-03 -9.9232909144787479e-04
      -1.6845079055268421e-03 -2.2486929463474848e-03
      -2.5753993392517538e-03 -7.0776177382412154e-04
      2.5531891817662847e-03 1.3835387293439705e-03
      -2.0548376103024378e-03 3.8743655021013213e-03
      4.2927526770956638e-03 -1.0243705840712489e-04
      1.9339359582225076e-04 2.7032877789116587e-03
      -3.3181537586679574e-03 4.1101215804016898e-03
      1.0757620488475847e-03 1.0222653681914711e+00
      -1.3455876251960958e-01 -3.7095179222712819e-02
      2.8931750163751097e-01 3.4003998474323105e-01
      1.7598408190996448e-01 1.0093878935345719e+00
      -1.4516586480242033e+00 -4.7765212905747600e-01
      -1.0823661812194449e+00 -1.5958251516724387e+00
      6.1812220504604221e-01 -1.6125256751909182e-03
      -3.7243578890938045e-01 5.1075986571583498e-01
      1.3077743176275340e+00 2.9511720423933174e-01
      -2.4864551316960751e-01 9.3461689701064488e-01
      -6.8606485761180128e-02 -5.1448070131399370e-01
      -1.7666187824197221e-02 -6.0463792307191622e-01
      -1.4496305482471117e+00 2.5710831767185161e-01
      -2.0343136248813576e-01 5.5382891019082847e-01
      5.6678925826571724e-01 1.1309917748449703e-01
      -4.6498967596177126e-01 -8.5975984640626724e-02
      -3.3883797598032628e-01 -9.1480583178307606e-01
      -6.1338705637525373e-02 9.7095199339974469e-01
      2.8272005927964161e-01 3.8673062380819179e-01
      7.0151837564442585e-02 -2.7643826656429776e-01
      -8.4978125749157932e-02 -1.0295758285755567e+00
      2.7320075558986590e-01 -5.7799303325535067e-02
      -4.0948671164008493e-02 5.8416384552318523e-01
      -4.0412336597376325e-01 2.7879161649681961e-01
      -7.7235517587548985e-01 2.8953102173507911e-01
      -1.7142490623128070e-01 -2.8237806328836668e-01
      1.4310365975907691e-01 -9.7460609319715141e-01
      7.1824971798789761e-01 -3.8387598564179021e-01
      -1.2949680358066975e+00 -5.4838981978095414e-01
      -4.7788032550147302e-01 1.7612541527332826e-01
      2.2612579758516660e-03 2.0151868812685766e-01
      -6.0294041838638013e-01 -3.8416881162507838e-01
      -9.5488479666052117e-01 -4.1873763131206382e-01
      -2.4690725730058327e-01 -9.8717427448056738e-01
      -1.7824762653199897e-01 2.0667602512161143e-01
      1.1256587019835464e-01 1.0762306436592959e-02
      2.4168159618150620e-01 -1.2648143124569572e-01
      -1.2429159051673880e-01 -6.1126270724142513e-02
      -2.4076145974517557e-01 -4.0662256502311006e-01
      -9.2235667644244068e-01 -1.8504944334384826e-01
      6.2474174888802268e-02 -4.4708761757445231e-01
      3.7744922126933966e-01 4.4801779109311696e-01
      8.5965822019318058e-02 -2.5472400381630400e-01
      -2.9024313779479498e-02 1.7908622015046435e-02
      -8.2695613799301237e-01 1.5248385421989269e-01
      3.5891390740400053e-01 2.4365789407958551e-02
      7.0961492394035297e-01 -1.5691112222864312e-01
      -3.7309738024866805e-02 -5.0142895657201397e-02
      -4.3649729025490558e-01 -3.1501629550055221e-01
      -9.5226312568627652e-02 -4.2888114068360556e-01
      -3.9825160254662068e-02 -6.3675986969653897e-01
      -9.2872810775164030e-02 -6.5048776446545262e-02
      1.0396280233558243e-01 3.0060573650324610e-02
      3.8705967801504915e-01 1.6928103625890395e-02
      -2.4836990871438225e-01 -3.6733188625472302e-01
      3.1644699856269226e-01 -1.1383954742742224e+00
      1.6580611028833803e-01 1.0598515150800962e-01
      -4.7586133094073829e-01 4.0496071179148285e-01
      2.8759169526916345e-01 2.6523439825534462e-01
      4.0225923728665214e-01 -4.1590666885729161e-01
      7.8629159486243314e-02 -2.0985834918351645e-01
      -7.8302194765956290e-01 -2.0683953694121593e-01
      -7.7536872472928398e-01 -4.4175647427868475e-01
      -2.7634929981414996e-01 3.0688516074906519e-01
      -2.5259419972151914e-01 1.3331233017955864e+00
      -7.0808293215646342e-02 -1.9093026657387529e-02
      2.1847046235762169e-02 -3.8874826375716248e-01
      -1.2471700866636919e+00 2.1258488278309967e-01
      1.3977894036315636e-01 6.0678624499736489e-01
      4.2825438830297874e-01 1.4809758008539889e-01
      -9.2061836319010729e-02 1.9600234837155034e-01
      1.3595624328150174e-01 -4.0759653670031831e-01
      -7.3744961873981926e-02 -3.3395735946872274e-01
      -7.9743637516320121e-01 -1.1089468629844705e+00
      1.5065534248981660e-01 2.1460830862058380e-01
      -5.0994041671851331e-01 2.1205972314927052e-01
      1.2768221452365949e+00 5.9802165138170071e-01
      -3.8362648066029159e-01 2.6771924471625319e-01
      6.9474288343737778e-01 -1.1896614310841824e+00
      -7.3413418928552188e-02 -1.3649892975558509e-01
      -3.3271570616722002e-01 1.6005736670650442e-01
      -3.2484468219490842e-01 -2.3194365366360559e-01
      -3.6290126893725366e-01 -5.0777837661038294e-01
      4.6507731082841605e-02 2.9633065772439310e-01
      -6.4973677469280244e-01 -2.3887843060971567e-01
      -5.6679271012597965e-01 -1.0763523849073984e+00
      -1.4294066917071133e-01 -1.2222831869536102e+00
      -5.7326924288489467e-01 9.9323330241618846e-01
      -1.9934362360671060e-01 3.3087796147962084e-01
      -4.0536495761657722e-02 4.1877937300810919e-01
      -3.4705850972289337e-01 7.2723438458207584e-02
      -8.1496015152741741e-02 3.7152590334866825e-01
      4.0807683013789975e-01 -3.6436406420368039e-01
      -2.7487143194750779e-01 6.6907644756607587e-01
      7.6217907858365108e-01 2.8126811029118448e-01
      9.4393894115482088e-02 -3.4689492551261436e-01
      -5.3514308162167845e-01 5.2531436822292985e-02
      -1.7244729951695228e-01 8.2534225834411035e-01
      -2.0726597217727891e-01 1.5745407512713845e+00
      3.4233748991241031e-01 7.2539146737688465e-01
      1.7373554141029354e-01 -1.6720321610330785e-01
      -1.2465670963362827e-01 -2.0310013841623689e-02
      3.0622950381657105e-01 -4.1595816750212988e-01
      -4.1962787929073708e-01 -1.1515574577591983e-01
      -8.5001331057465129e-02 -9.4095023054450355e-01
      6.2560232324833720e-01 5.8946854267581873e-02
      4.6992062744635611e-02 -6.0107599053838257e-01
      -3.5980429047151608e-01 -6.3556170833796777e-01
      -7.4195785743393106e-01 -5.5974739150641106e-01
      2.4950146847971111e-01 -2.4806153481400020e-01
      -3.1849603799274562e-01 -4.0663957531654799e-01
      9.1603022180498228e-01 5.1285696714657114e-01
      -9.5974132752358432e-01 -5.7171672005388274e-01
      -4.8439379985500153e-01 -1.4795888078325528e-01
      -1.5007374847775165e-01 -4.9688983418221183e-01
      -5.0338690728199309e-01 -2.7250964089212137e-01
      -2.9163720712939850e-01 1.3606404464331098e-01
      -3.8495350150752050e-01 1.2697373095239442e-01
      7.2291562622199101e-01 -4.9490688526273713e-01
      3.3142008267716783e-01 -8.2205315851892646e-01
      -1.1549507346411314e+00 5.1121463076995699e-01
      -6.1935158841826810e-01 -5.4673577706068899e-01
      -1.3519013495140469e-01 -4.0033920650995958e-01
      1.5396459706671999e+00 -2.0351895883714508e-01
      -3.0677257345800446e-01 -1.3910676200095231e+00
      -3.1582599364110953e-01 -5.6311970164269232e-01
      -6.5915002467481942e-01 7.7604218220710480e-02
      -5.9526886811597346e-01 -6.3954681642009703e-01
      -3.3671055445720866e-01 -1.4755754438091778e-01
      2.9732269604162842e-01 1.4407821540095567e+00
      -2.0058285335337339e-01 -1.3681465467144710e-01
      -3.0883331300692229e-01 -4.8037622987583889e-01
      4.1931065691774899e-01 -2.0626873341718752e-01
      6.2850521385933655e-01 1.2070749799428855e-01
      -6.2005780708949731e-01 2.0024156142700933e-01
      -7.6297350066439684e-01 1.5211443752195697e-01
      -6.7612979173981835e-01 2.6721716779181948e-01
      -5.2366360716705374e-01 -4.1911683697986646e-01
      3.5485497493771323e-01 1.3750114585959472e-01
      -3.5389841111311510e-01 7.7923769289228861e-01
      -4.8208712527990211e-01 -4.7473063735363213e-01
      7.5942648085350373e-01 4.8252967397168928e-01
      1.3037748600517360e-01 -3.6133336152557843e-01
      -4.0046546433733382e-01 -1.8214082432187523e-01
      -6.7301994165993462e-01 2.9021784753042440e-01
      3.4183783702219483e-01 -2.4110213577804112e-02
      2.3444139388099933e-01 -5.7623036199042088e-01
      -5.5355103792381299e-01 -5.3428865267691672e-01
      3.8488933453626484e-01 -6.4193448168612544e-01
      -7.6207189534397957e-01 -2.1288740986756924e-01
      -1.3720308774040840e-01 -2.4593081414103921e-01
      1.3682355684670253e-01 -4.1281549615923169e-01
      1.6748353657858606e-01 5.4705713389748090e-01
      6.7456546904970316e-01 1.2085180790002081e-01
      3.8306040891625405e-02 -1.1283971817924519e+00
      -1.0995916052382133e+00 -2.0730284580712227e-01
      1.9031966903690967e-01 8.4889665278274307e-01
      -7.1179928562806727e-01 3.4878940002191200e-01
      -1.9751394748725490e-01 -4.1937040024880101e-01
      -3.3731626991623642e-01 -1.1983358406267481e-02
      1.4438677536623898e-01 -9.8609755900005247e-01
      2.6290789800956860e-01 -4.8024915408192115e-01
      -4.5188518809452927e-01 6.0135897393953863e-01
      4.5695666557251374e-01 3.5111364612288080e-02
      4.3298999690929785e-01 1.2594044784618652e+00
      -1.8258009058794225e-01 3.2845890969130631e-01
      -1.1339104788375418e+00 -5.5192443867739538e-01
      4.0861565712077802e-01 3.3332490899020323e-01
      7.3360035690203540e-01 -6.6021442850721568e-01
      2.9156020317685660e-01 -7.8967513413071710e-01
      -1.0284376829968381e-01 -3.1155412505552937e-01
      -6.9852220425089750e-01 -8.4027609208758347e-01
      4.2972550266653120e-01 -1.1810968693456059e-01
      -1.8880775667489513e-01 -1.2446354842674459e-01
      1.0103044634367937e+00 -5.6210601954451966e-01
      -1.1231911774566670e+00 -5.8596660849702831e-01
      -1.5167736718159050e-01 -5.6460982707257923e-01
      -2.2951598114342731e-01 -3.9459386741870772e-01
      -2.7270235044003449e-01 -1.1733686126768100e-01
      3.7944518637851012e-02 6.9007215731980853e-01
      -3.8448251461489502e-01 3.4335785571835398e-01
      3.9694607578832791e-01 -2.5111223952887651e-01
      1.3312579877810276e+00 -7.4992027172346321e-02
      -1.5475823841628555e-01 -6.0768571175193041e-02
      -2.1706513200595537e-01 4.2921747371766711e-01
      -1.6141788910094831e-01 4.2308817348080435e-01
      9.6331385387787793e-01 -8.7417692437470174e-01
      5.9784286437041445e-01 -7.3412260975019962e-03
      -1.6142987994399536e+00 -1.0336621978978144e-01
      -6.2799800560152752e-01 6.5239914756669648e-01
      -4.1500081746859346e-01 5.5830058520880155e-01
      -3.2619858361813420e-01 4.3569809577082602e-01
      4.4389851393608226e-01 1.1722422716300729e-01
      -4.3137102069370631e-01 -1.1176710670712114e-01
      -6.6588948504764245e-01 1.1263745393495939e-01
      -3.3315559813254558e-01 2.0040617681621850e-01
      -4.3697303525773457e-01 2.2997046494961546e-01
      4.6239849616044526e-01 7.6040165934922843e-01
      -6.5013442538717603e-01 2.4039547791686733e-01
      3.4245849176201820e-01 -1.3493967976933894e+00
      3.2962871458267923e-01 -1.0332173791711499e+00
      -8.1401474826444831e-01 7.0684485754860815e-01
      5.8472373402541811e-01 -8.9321705206511826e-01
      1.2280597734247463e-01 1.1622381555697943e+00
      -1.2050810193497079e+00 -1.9019795342470588e-01
      6.1107461329736990e-01 6.7321591350108190e-01
      -5.5036461576296880e-01 -1.2620227703368239e+00
      -2.0526011004251618e-01 3.4143801596148607e-03
      -3.8157818821027835e-03 -2.7229912317643366e-03
      3.1926969230388043e-03 -1.8672070896532634e-03
      4.9764360251570968e-03 1.8729829831427300e-03
      -3.0273727523985588e-03 1.8136354844609671e-03
      2.9471277428899105e-03 2.6186765537240951e-03
      2.5139603536731580e-03 1.5273113575675604e-03
      2.4196214887583422e-03 3.2889477890333295e-03
      -6.6237484758972039e-04 -1.1675650645620443e-03
      -3.5936538219530655e-03 4.5916100711102656e-03
      -2.6257368173740313e-03 -4.7144182745934215e-03
      3.0636997229309560e-03 -2.6550486724354391e-03
      -4.8920617620104639e-03 -5.0412129962059404e-03
      -9.7252545815499020e-04 3.7264030675628746e-04
      4.5910718837440000e-04 3.3005832853600543e-03
      -4.8085818574112879e-03 4.5477830751522328e-04
      -2.7864944844334244e-03 -4.8614441930389194e-04
      -3.8878398868949092e-03 -2.0868713563453566e-03
      -2.7410677951525664e-03 -9.5557207020792369e-04
      2.7564749034360665e-03 1.6199138142022106e-03
      -1.6291393405386599e-03 -3.5149489958563986e-03
      3.5950047369493676e-03 -2.7279984275514883e-03
      -5.0604471157851948e-03 6.3018268445436858e-04
      -4.3242898967020549e-03 7.3071824963885104e-02
      3.3628947357884315e-01 1.2582466884139026e-01
      3.7047994043864002e-01 2.0945275885977839e-02
      -8.4602728753154777e-02 4.5433897788399419e-01
      -3.8266729722463427e-01 -6.1351250577276961e-01
      2.0082162192528935e-01 -1.4408369118164297e+00
      7.8134396086225488e-01 -1.6919844650340057e-01
      -8.5860940163209554e-01 2.6545460962862499e-01
      1.6857713427952922e-01 3.7705428336414631e-01
      2.0143601008814957e-01 7.1125093859066368e-01
      4.7215359669426159e-02 -4.3505445953290456e-01
      -5.6354797968584869e-01 -1.2206136661109230e+00
      -2.1811249092045198e-01 1.3446434748956498e-01
      3.6769201433232135e-01 1.3434974211859825e+00
      5.6726539289687861e-01 2.4933690974099632e-01
      2.5948758171698266e-01 -7.6935202454296872e-02
      -5.5874385214386246e-01 4.2778249149314429e-01
      -8.4025825184089398e-01 1.5169844803168224e+00
      -1.5962649726568001e-01 -8.5862679622134869e-02
      -3.8295493120664131e-01 -1.1737567494796333e-01
      1.1391924256464951e-01 -3.2845406716858788e-01
      4.2447928872510871e-01 -2.4441469082098238e-01
      2.0990042187826470e-02 6.7319417076323496e-01
      -3.3419469544992053e-01 -4.4407584149450369e-01
      4.2045872260336670e-01 5.8058778637286401e-01
      1.7397460636035089e-01 -2.4844533975086741e-01
      -1.1283656136319560e-01 1.6230025618829078e-01
      -7.3710988320204107e-01 -5.1698801962328189e-01
      6.2196075411270779e-01 -1.0086954120466185e+00
      4.8134313879716206e-01 -6.7410327907595124e-01
      5.1079480670608579e-02 -8.5877188959503872e-02
      -6.6419094672681966e-01 4.1779868264673997e-01
      -3.5160692355873674e-01 1.0959031649150683e+00
      -3.6520781421227677e-01 -5.1000392468914246e-01
      1.1933109225648035e+00 8.7349200447881848e-04
      -2.7412887610661890e-01 1.3206590710469004e-01
      7.3013158249697296e-01 -1.0528411322022820e-01
      -5.4767608545279282e-02 -5.5187446235844251e-01
      -3.4379210868580695e-01 -2.2444642185202224e-01
      2.0767062460221011e-01 1.8512299152550751e-01
      -1.0333030063326112e+00 3.4924622624375407e-01
      -5.1921780609141166e-01 4.0053344736490437e-01
      -3.5312115278566142e-01 -8.3655281266304704e-01
      -9.8686774741299874e-02 6.1794652016451035e-01
      2.7645632289992583e-01 5.9698505222920639e-01
      -2.7297981260101023e-01 8.1881195123579587e-01
      -5.9769876306311920e-01 -2.5471018582000399e-01
      -5.7975852445372533e-01 6.6825220074747149e-01
      -7.7267304873501275e-01 -3.9678416468026376e-02
      9.3690149978139281e-01 -4.3910288155546046e-01
      -8.3356811941838460e-01 -1.3974998277324419e-01
      -6.9923444708961269e-01 1.1352959540896050e-01
      -1.0254384965808780e-01 3.2300139050999316e-01
      6.1061156487162549e-01 -8.8653427547029784e-01
      -9.3776206268682427e-01 -8.5477872916033343e-02
      -8.3925793924575842e-01 -9.0259718561538371e-01
      2.9889918870896937e-01 2.5230576271723382e-01
      -2.2031787669625277e-01 9.0004216274584700e-02
      -1.0326597492612175e-01 -1.5762204323331475e-01
      7.8114529445265790e-01 -4.1448826865381144e-01
      1.2813395462329882e-01 -1.5530640537645829e-01
      -1.0610542322865442e+00 -1.5966880173599729e+00
      -1.4260399928706488e-01 -1.2977805394042712e+00
      -2.2264190032008579e-01 -5.6665342600219037e-01
      2.0517551550436050e-01 1.8905699271617490e-01
      -5.7923436179868171e-01 4.8047525064558189e-01
      -5.3861997437981465e-02 1.4901287221190782e-01
      -8.7594926268435458e-01 -3.1429818050817612e-02
      -9.6414716466279304e-02 -1.2851301267727591e-01
      3.6372239105370990e-01 -3.7157118536844730e-01
      -6.5191975511157518e-01 1.3478305380060626e-01
      -1.6271774039678602e-01 -6.1455955991305572e-02
      -8.3167790095315761e-02 -5.6649236422601357e-01
      -7.8327469883717138e-01 -4.5186407023904307e-01
      -5.3436310190282799e-01 4.9668186810765563e-01
      -4.7394038965771468e-01 4.9118999049057249e-01
      4.3796969069763492e-01 -3.4033068476102546e-01
      9.8999078525448994e-02 -4.8405624792658059e-02
      -8.9843081778193001e-02 -1.3329061668861162e+00
      -9.8788865962333147e-02 1.5588644957436762e-01
      -7.9298352200239208e-01 6.7391987844956036e-01
      -3.0833391125051129e-01 -7.0431117302396418e-01
      9.3543782740247206e-01 -6.6575777802019773e-02
      -9.3616844286929818e-02 9.3749045544307005e-02
      5.6285846379261067e-02 -6.2774459242557046e-01
      -5.7136615141560587e-01 -7.3277180701279498e-01
      -9.2124106012165044e-02 4.5142409992238272e-02
      2.8598950414283347e-01 3.9125405236673944e-01
      -8.6196609612517183e-01 6.3849689568179713e-01
      -1.0983837450709633e-01 5.0477716030901620e-01
      -9.5307703449301784e-01 2.6116449869113523e-01
      2.0583259059609055e-01 -5.4375977756547589e-01
      6.7309536468534359e-01 -8.9269129806839898e-01
      -6.0500744502857118e-01 7.9549806588470362e-01
      -3.7692412398831981e-01 5.7670811382581788e-01
      -1.7725907658364362e-01 6.7510351525738554e-01
      2.2996503380897049e-01 -2.9476473712107731e-01
      -1.6415925345058124e-01 4.1101512244973110e-01
      5.2971773678299450e-01 -5.4864953493872867e-02
      2.6296752018969677e-01 -1.0837371848015853e+00
      5.0143653862911655e-03 -7.2804821794630048e-01
      3.6405028824708496e-01 -1.1921151413626536e+00
      -5.8723303166958296e-01 -3.9825287699344286e-01
      -1.7119705151990433e-01 2.4742220449705080e-01
      -2.9501201052120790e-01 -5.6966002054522291e-01
      -9.7731432352339526e-02 4.7198969005277785e-01
      -1.9451323087900105e-01 4.3115060370418457e-01
      -6.9163184244010323e-01 -7.5060836203189019e-01
      -6.7962927628106118e-01 -8.1849852485882602e-01
      -5.1038028158030180e-01 -1.4246045064335083e-01
      3.2958781291423689e-01 3.3191578515985426e-01
      1.5709315186085898e-01 2.0620638603021646e-01
      -7.9447262247623840e-01 -3.5749307242765616e-01
      -7.4215125157162498e-01 -3.6598148807319031e-01
      -2.3659624095025958e-01 -6.6262128238510376e-01
      -2.7014731285122090e-01 1.7577048908606230e-01
      -1.4666366029863570e-01 -1.7720908554695869e-01
      -2.1651738691058417e-01 -2.3651267171359566e-01
      9.5018469043653553e-01 -4.1091551550305402e-03
      -4.9155946293114589e-01 -4.2796489584016523e-02
      -9.8879707093429425e-01 -3.4317683758233836e-01
      2.1639494170124740e-01 5.8078389512929159e-02
      6.7238982139311690e-02 -8.8178344923980301e-01
      1.0260955579068922e+00 -3.3849345809814226e-02
      -8.3577307031062587e-02 -5.9766579510914042e-01
      -4.4758724269301003e-01 -9.7111975782121374e-01
      -3.2489588315831519e-01 1.6683955293822484e-02
      -2.5309381348176430e-01 -4.2949069816757290e-01
      6.0086776739192427e-01 5.2000766654779917e-01
      5.1499348497978645e-02 3.1864048142891582e-01
      1.6065477516779866e-01 -3.7063627209423317e-01
      -8.2807452094752418e-02 6.9209381693939531e-01
      3.7642960651641849e-01 4.7737826980846282e-01
      -4.3639739619309792e-01 6.8863726805699063e-02
      -2.0832317571964776e-01 2.3663791012584834e-01
      -4.0511219469390181e-01 -3.3185490775915488e-01
      -7.4991891143269074e-01 -6.5334978467446669e-01
      -1.7312766433850502e-01 1.0577706168184794e-01
      -1.7151470786668557e-01 3.2475296408855181e-01
      -3.2420258884257075e-01 -3.4190125306309710e-01
      1.4176364891910370e-01 -9.8514643038642558e-01
      1.9428082739589528e-01 5.4831390139145353e-01
      -3.3049520161228030e-01 1.8063878173600595e-01
      -1.9374642115903803e-01 -1.0761247508026940e-01
      1.1117248776633107e-01 3.6999903977380766e-01
      -1.6388896205472550e-01 -1.8320167418876217e-02
      1.3923013489562680e-01 7.2859716375003980e-01
      -4.8594752453324327e-02 -3.8252809356847006e-01
      -1.7978256532302431e-01 -2.4988912629575116e-01
      -6.8282411188069470e-01 -1.2178318126792835e-01
      2.1613911572969460e-01 -1.7863613306726137e-01
      -4.1401308420889466e-01 -3.6979872402867803e-01
      -6.3689333345371957e-01 2.0194801003492679e-01
      7.2117380815387855e-01 -2.7808490666742114e-01
      -4.2766086067613324e-01 3.2370683936058836e-01
      -2.1756724992755105e-01 4.3709367521620057e-01
      6.1589268809553199e-01 2.1943364000692836e-01
      1.5759048730309044e-01 7.1595265723679036e-01
      4.3502430941773917e-01 -5.1115169828413309e-01
      -5.2315311015700994e-01 2.5136358829221161e-01
      -3.3392699501598727e-01 -1.1615403369849171e+00
      2.3500804663189481e-01 3.1114785288630353e-01
      4.0175936232535370e-01 -1.8529040974619138e-01
      -6.2566589426680821e-02 1.5764934602777897e-01
      1.2536947330574241e-01 1.1913702660880228e-01
      -2.1942119898740714e-01 -4.4356803609868278e-01
      8.4497399105749815e-01 5.8888744802376725e-01
      2.4827991239158254e-01 2.8767398818357254e-01
      -7.3867969662453026e-01 3.9724803100429568e-01
      9.2838575215397887e-02 2.7578914579267022e-01
      -2.8442551949219985e-01 -2.2204159891985245e-01
      3.1592716602715809e-01 -3.1450025291425332e-01
      -2.2641520466721582e-01 -7.7733570787193329e-01
      2.8756121615443736e-01 -1.8804329880338289e-01
      -2.3336951595960118e-01 -1.9506669811483242e-02
      -4.7112812760258632e-01 -4.7143955740385901e-01
      -7.9260764993339367e-02 7.4514292553544093e-01
      -3.5746239343623304e-01 1.7981085685006537e-01
      3.2867737089913218e-01 2.9739156067436967e-01
      1.3393601473947633e-01 6.1215680680803508e-01
      -5.2251237829602559e-01 -4.0706054287146668e-03
      3.3617226484809290e-02 1.0378838263662862e-01
      2.9511954957264175e-01 -3.6464780575247452e-01
      -2.4953540176127006e-01 -1.7325477791602810e-02
      -7.0900640929567393e-01 -1.2933116273401860e-01
      3.7185673463045682e-01 4.6652845987116454e-01
      1.9658096462810284e-01 4.1840047700648136e-01
      2.2486451870725163e-01 -4.8807356377512034e-01
      -3.2152026110306020e-01 3.8744920966533991e-01
      -7.4839009128127332e-01 -3.5251367622098156e-01
      3.0180335782514189e-01 -1.6062948437446123e-01
      -5.7349750959835810e-01 -3.1109518109899004e-01
      2.6307152086689850e-01 -2.1455257744391207e-01
      -8.2379041926174235e-01 7.3727269695805772e-02
      -1.2873765595561792e-01 -4.1017112029293662e-01
      -2.2339134504896344e-01 -3.7564788259340154e-01
      -6.4712679823591759e-02 4.3368198408513653e-01
      -1.3824980477390481e-01 3.7197038969672919e-01
      6.4674803162190458e-02 4.0952369666257143e-01
      1.7686386970261384e-01 5.4411647607597993e-02
      4.5422844246002836e-01 -8.1145100560077968e-02
      1.2730538741561770e+00 9.8196849339774250e-01
      -6.3235669361246902e-02 -1.5821473768544905e-01
      4.4583345488568343e-01 6.1129251977518440e-01
      5.4153626082022865e-01 1.7383853818594316e-01
      4.1080347402465203e-02 2.2267049705540878e-01
      -4.5640348047378161e-02 4.4127083245797777e-01
      1.5562153661191152e-03 1.0790176938853151e-03
      -1.3155298794345061e-03 2.9627392511107822e-03
      -1.9752388332917176e-03 3.2685014371636656e-03
      2.4540705719998399e-03 -2.8581305402848207e-03
      -3.4781683150413123e-03 -2.0757361311017478e-03
      -1.7995460257653837e-03 -1.8486058900819013e-03
      -3.0524430018147321e-03 4.2563018940063140e-03
      2.1012745437872368e-03 6.8875417980260290e-04
      4.5948673471803243e-03 -1.5415368963504095e-03
      -5.3699436213719030e-04 -2.8748501254372743e-03
      -2.2684920989104766e-03 4.5568595165345451e-03
      -3.2247293253061479e-03 2.6663542160009200e-03
      2.9864687883502895e-03 4.8578646321631074e-03
      4.3676333418527389e-03 -1.8629826471334167e-03
      -9.2602599956554863e-04 1.0223019421302594e-03
      2.2873376264501659e-04 1.9433940103667936e-03
      -1.2547908721853558e-03 -2.9059341807147725e-04
      -3.4463396621996792e-04 1.4973513672350686e-03
      -1.9176886204547123e-04 -3.0968842191478646e-03
      6.8624867708423501e-04 4.4214231592540594e-03
      1.2199707527564083e-03 8.9367912448392491e-05
      9.8375123273381588e-04 8.3144140255749714e-04
      -3.2659138231016112e-03 -2.3136466929572878e-03
      1.2664257882002180e-03 1.1541504568005533e-01
      4.2710520729942997e-01 -3.7653529769870925e-01
      -6.1491226449734510e-02 -1.3666108106014202e-01
      3.9394275423846775e-01 -6.6346571050794764e-02
      -1.5506183301087065e-01 2.2979122908771002e-01
      1.2577570058813148e-01 -1.4038961796370781e+00
      4.5525587109785476e-01 -4.8606933030929994e-01
      -8.2801941016023572e-01 -2.4216132951579186e-01
      8.5277799449068062e-02 5.3636857017314299e-01
      -7.2941018777699362e-01 5.7682503102612959e-01
      -3.7746269015657496e-01 7.0123698611445337e-02
      -3.6755058580942778e-03 -3.2381811811932176e-01
      -5.9162058040093203e-02 1.9993054584311237e-01
      -2.9870000303861388e-01 4.6653195994560248e-01
      -1.8462176618895257e-01 3.5807774796012742e-01
      -2.6104050448621013e-01 -2.0176331427143024e-01
      -2.2886096525136984e-01 -1.8407559823946637e-01
      -1.0527290123222872e+00 1.3543706216759155e+00
      -5.6261297329089721e-01 -4.8306641220841398e-02
      -3.0470008172127344e-01 -4.8022368677925675e-01
      1.0762144461272675e-01 -7.3772451012885987e-01
      4.5219905469144739e-01 -6.1030121249538971e-01
      1.6082527202654216e-02 8.7998934831098541e-01
      -2.1188231632296187e-01 -5.6779213625557390e-01
      -1.9288336821884478e-01 -1.2201020113821547e-01
      -3.2032954860238794e-01 9.5293223712419856e-02
      -2.5712498161144876e-02 1.5703290719982496e-01
      -7.5456641633655630e-01 -1.6457234745307706e-01
      -9.8225566917834642e-02 -9.1349288362880099e-01
      -1.3958442485877415e-01 1.1804151655931348e-01
      -1.5449765388599268e-01 -7.4642672677011290e-01
      -3.1093359525397984e-01 9.8498773171055449e-03
      -6.5071485454915956e-01 -1.9787135599170502e-01
      4.1510097702588691e-02 -4.9332483379990405e-01
      3.8568237356014029e-01 -3.9436129052477226e-01
      1.1827529613098884e-02 3.8688147674223089e-01
      5.9817827765366566e-02 7.4991608265512003e-02
      -3.4164309589095171e-01 3.6812418755799875e-01
      -2.6477132920670943e-01 1.6680633483712539e-02
      2.9352158600044870e-01 7.3084461449319815e-01
      -8.4641025628719613e-01 -3.8500327159458303e-01
      2.2861285674471329e-01 2.2601268422708326e-01
      -5.1587191267828991e-01 -5.2823646377583111e-01
      -3.8173519289375274e-01 4.0122777807665433e-01
      5.6889283940861102e-01 3.3079397914956288e-01
      1.6046319521774385e-01 7.9685343744848658e-01
      -7.0785966216256568e-01 1.0083338284148985e-02
      1.5115419447346989e-01 2.3040265917592867e-01
      -2.2487758947631212e-01 4.1418108879206811e-01
      7.4137217824846766e-02 -2.3918941461297097e-01
      -6.3612027146665262e-01 3.4278113643402608e-01
      -5.0612745608279320e-03 -1.0677902058659119e+00
      -2.0651570009117581e-01 5.7990266314653913e-02
      -9.9015204769238793e-02 8.3528136594093055e-02
      -4.0947296261014415e-01 -1.3350288780175457e-01
      1.8619923629632582e-02 -6.8311020170207487e-02
      6.3007373231651911e-02 -7.8781774415884104e-02
      3.6354382563093696e-01 -1.7384230251554705e-02
      -8.1167936577609556e-01 1.0298336639809322e-01
      1.4090291278450934e-01 4.0032887866236283e-01
      -5.9344322991883036e-01 4.0798935999427366e-01
      -1.1440457713078811e+00 -6.9872475909644127e-01
      2.8858471787988410e-01 2.9052164721186646e-01
      4.0685917900658231e-02 -9.4452415038049009e-01
      6.0678660310208676e-01 -3.1572801553303970e-01
      -6.9598978883634566e-01 -1.1067842693009755e-01
      -5.3482809804624769e-02 5.6816673277024587e-01
      -3.7452552697731623e-01 -4.9986510623102488e-03
      -2.4548643681640649e-02 1.4869470273186696e+00
      -5.0791976232847358e-01 -8.4679443306430374e-02
      4.1687171475084395e-01 -9.8954256499142412e-02
      3.0012611826728736e-02 1.8714041718113233e-02
      7.4173296221656471e-02 2.0960085436489267e-01
      -2.0450227190007120e-01 7.8952816179343813e-02
      4.9345876746236261e-01 1.7992138696393536e-01
      -2.2050940904333405e-01 3.3266403159356794e-01
      -7.6538345721547818e-01 -1.1204318676195790e-01
      -3.6237920276221836e-01 -8.5952997966116584e-01
      4.9735595581591699e-02 -1.1435204709502631e+00
      5.1700994403459166e-01 9.9025601219772885e-02
      2.6843196811607317e-01 -2.3891896101286608e-01
      -6.5386296818319600e-01 -4.1376250404992099e-01
      3.1344543295188010e-01 5.0572436968986212e-01
      3.9013366820897488e-01 -1.7603853995192364e-01
      3.7360951638015172e-01 -5.3553275570540115e-01
      -1.3588482060955637e-01 5.5443131283407310e-01
      -7.6833932110184033e-01 -4.7860516461475355e-01
      2.0834137121160054e-01 -4.2720021353576207e-02
      4.4659364286794323e-01 4.3257206829871352e-02
      -6.8703144151837670e-01 1.0768967501261990e+00
      -1.1319493040585238e+00 3.5853514282342047e-01
      -2.3133235497626886e-01 1.3167755240821885e-01
      -3.6441058245832353e-01 5.6890808102138379e-01
      -5.5601737396325812e-01 4.5080188154690598e-01
      5.4786623643031152e-01 -6.3366008086276793e-01
      4.8006332587957912e-01 1.7384937431030428e-01
      -1.6101945944336993e-02 9.5675497753598931e-02
      -4.2539891322503826e-02 2.2788362197047773e-01
      5.6450542889918776e-01 -2.1996025951293280e-01
      -6.4950377698027972e-01 -5.5741515889990489e-01
      8.7865879345262821e-01 -7.5519390250519003e-01
      2.1102536722103171e-01 -5.4735046163777612e-01
      -2.7321150403024114e-01 -5.5756643686955465e-01
      1.3027391775934198e+00 2.4235852447261724e-01
      -2.1483670194150548e-01 -3.4999081377700658e-01
      4.3643408006487672e-01 7.5548332314647049e-01
      4.0619803469275123e-01 -1.2541891962166540e-01
      9.8270436657582594e-01 3.1625829730989646e-01
      -4.1903234318833682e-01 -6.0793233573377059e-01
      -3.8675386431714981e-01 -4.0663139325585951e-01
      -1.9553014092774351e-01 -5.8890960410317150e-01
      2.6037624334316301e-01 7.7781096191961729e-01
      -6.2151408756071047e-01 2.4193423241625708e-01
      -1.1762521299322386e+00 -1.5857984205535824e-01
      -2.9470180208199998e-01 -5.4661851071121814e-01
      -7.7731693403129898e-01 1.4316187005677072e-01
      -4.5433591022532827e-01 3.3130928415634731e-01
      2.3293898566395932e-01 7.5306286111760948e-02
      4.6951403064630626e-01 1.1237202888874285e+00
      -1.2166843823587617e-01 -3.3373410625378575e-02
      1.0376348319543326e-02 -1.8450583879498506e-01
      1.6540317075007391e-01 -9.5339801487657572e-01
      1.2118081820131868e-01 9.7340624355491023e-01
      1.0121760158133832e+00 -2.7473048379493342e-01
      1.5030882157323309e+00 4.7416738984643318e-02
      1.0373596855809046e-01 -2.7637632242338439e-01
      -1.4657680950893814e-01 -1.4487030378742667e-02
      5.5945818411258441e-01 -9.4052178375566342e-02
      -1.5536652032067730e-01 -7.5420493463969118e-01
      4.5045576231402415e-02 6.7179331300840264e-02
      4.1150688813316144e-01 1.7243215650865840e-02
      -2.9528410777778313e-01 3.2309355451796218e-01
      -3.1947572944808827e-01 1.2301650666740659e-01
      -3.9872341290822977e-01 -2.3041650344794484e-01
      6.2097271947047239e-01 1.8563879457581509e-01
      3.3532959694197957e-02 5.8294529235471493e-01
      2.9572097740420122e-01 2.2952423598656316e-01
      -2.8351900470354623e-02 4.6001935753080914e-01
      -4.9857985590066246e-02 -2.5245016507979590e-01
      -1.9130581579934666e-01 1.4284073104076916e-01
      -1.6115363237565128e-01 -3.0974019686349809e-02
      1.4348970457069812e-01 7.3641751350983087e-01
      3.2690849606350530e-01 -7.6151601114173378e-02
      -6.1497541607325001e-01 -5.2304096372476749e-01
      6.0474008458555772e-02 4.6509729504213387e-01
      -6.8061688498206308e-01 -5.0935939450037315e-01
      4.6390194116168604e-01 9.7283157921137162e-02
      -5.1399564203452187e-02 2.9429312122610246e-01
      5.2917768744280347e-01 -4.2356793332308268e-01
      -7.6478772318971844e-01 -1.9547953883874114e-01
      -2.6252863654664088e-01 -3.4621582841095844e-02
      1.9203391438038184e-01 -2.1855492931988707e-01
      -3.4046547097229829e-01 1.5994848644202023e-01
      1.1084653849069630e+00 7.8044316834892913e-01
      1.1760348519244064e-01 -1.3684209033435880e-02
      -6.3619671250940391e-01 -5.1709019437766901e-02
      -4.6727674095987498e-01 -8.2221111200775299e-01
      -9.8607350635803914e-01 3.3665892804589079e-02
      -2.5164985755800845e-01 -8.4424466136772541e-02
      -7.2912559976954705e-01 -4.4891997625612023e-01
      2.4005296931948766e-01 -2.1272553412698961e-01
      1.3246864710115288e-02 1.5400032289287699e-01
      1.5116609332997927e-01 -1.4887522134145773e-01
      1.9106319721224330e-01 5.3181409033868920e-02
      2.0067636552049145e-01 1.8613149980258661e-02
      -1.3053477702451310e-01 -1.7346274052874680e-01
      -5.3075924808980601e-02 5.6199506592796225e-02
      2.4402759731453538e-01 5.4772590717015912e-01
      -6.3591479585920385e-01 -7.3096125714525173e-01
      -1.3772812142140345e-01 9.8014569370272864e-02
      4.0754246867192895e-01 -2.2873440679087781e-01
      1.1165829496010032e-02 -6.3956544184607234e-01
      -6.6428023372757397e-02 -3.7178465958416479e-01
      -1.0276069423300734e-01 -3.7519966233991725e-01
      -1.5018368492501530e-01 -5.1075975911576610e-01
      1.0633868563526926e-01 -2.6061063632884018e-01
      2.3192263819730191e-01 7.5970217138554974e-01
      -5.9351103852560406e-02 -2.3583163889043742e-02
      5.0398015094891169e-01 5.3654852589885815e-01
      7.5052307544134367e-01 -2.6337742692441468e-01
      2.6159833944973254e-01 1.8056952956631390e-02
      1.8180769376058337e-01 3.9179544736366573e-01
      3.3509529114582348e-01 3.1110702143267210e-01
      -3.2871537203177698e-01 -6.9565423047223063e-01
      -5.1402547364566853e-01 6.9210909577917024e-01
      -3.0997633095025878e-01 -2.6415611802081573e-01
      -2.0815031023984598e-01 7.5316084573673284e-03
      3.6945467727300124e-01 1.4883049865597250e-01
      -1.5518349074764008e-02 -6.7266772091321966e-02
      -1.0937774233954446e-01 -6.1411215493792926e-01
      -4.0800031583631680e-01 -3.6530343095328566e-01
      -5.6094885615198853e-01 3.9914140183318854e-02
      -1.8660792003986965e-01 8.4788795103183962e-02
      -2.3642195087880474e-01 -9.7581237163631623e-02
      -3.6465826550414235e-02 2.3255068032439341e-01
      -7.4486551135600765e-01 2.0442859861415230e-01
      -9.2314765802223711e-02 -5.4124425116484749e-02
      -2.3331542847043121e-01 -6.2526371866460551e-01
      3.3465598935668467e-01 -1.6992310145608916e-01
      -1.4650857625803704e-01 4.4967658891603121e-04
      2.8997970654654487e-01 -5.0992059283222924e-01
      -6.7568838356703728e-02 1.5101573603454958e-02
      3.0404800747367011e-01 -4.7623286384673369e-01
      1.7985676311367393e-01 -3.8219272852673558e-01
      -3.2629296112463596e-01 -3.0021569522890618e-01
      -9.2551352959447730e-01 -7.0955613147900345e-02
      5.1262420503198747e-01 -5.4328142758881981e-01
      -1.9632695367949715e-01 9.1723001620439286e-04
      -3.7172433979070921e-03 1.3724993407625910e-03
      -1.8086402503819014e-03 -1.7193475592166205e-03
      1.4571079291615750e-03 4.2998627289787712e-03
      -4.3333824041253194e-03 -1.0424300142439647e-03
      -2.5524908702862785e-03 -1.5421977259176586e-03
      -3.9843917818932224e-03 2.8912878055782290e-04
      -9.9271588478487007e-04 -1.1815317133666303e-03
      4.8983112764858202e-03 4.3914922511790440e-03
      -2.5538257215546164e-03 -5.8570882985139398e-04
      1.4102320196497326e-03 -2.5650859288437501e-03
      2.8879768384681825e-03 1.0849894306394800e-03
      -4.5344309440471277e-03 -4.4078526726559399e-03
      3.7552937244702375e-03 -1.2580371999636694e-03
      -1.1453080686411286e-03 -4.8348613198902889e-03
      -2.1821281770379479e-03 1.6606247517312654e-03
      3.8302135186893717e-03 4.4541584542900801e-03
      -1.7705828329659056e-03 -3.3891238287816839e-03
      1.1982650934907937e-03 4.7819769308860317e-03
      -8.7414791071880346e-04 -2.1351743206819984e-03
      -2.3807275810649409e-05 -4.7552800392177373e-03
      -3.4642983975358924e-03 3.1536315246274158e-03
      -1.0258601256109853e-03 -1.0135095129312501e-04
      -2.2532156592535301e-03 -3.8169860058774191e-01
      -3.3795188789906067e-01 -5.5651324893597343e-01
      -4.4138452087552828e-02 -1.4444732245443223e-01
      -5.8653869392273550e-01 2.6709525176578192e-01
      -4.6556566699210329e-02 -1.6143619666489761e-01
      5.6274015773721098e-01 -3.8614195288379471e-01
      1.4130538316806432e-01 -1.1824616688354096e-01
      -9.4637010584890102e-01 -6.4375465704711354e-01
      -4.1450652728182968e-01 -1.5324649528254758e-01
      -1.1030900951941483e-01 4.2359045381712401e-01
      -6.8873763566081347e-01 1.8664633461119674e-02
      2.5946799407807486e-01 -2.8919422826366148e-01
      -4.6414063240580739e-01 3.9217437352617679e-02
      -7.3165053667022983e-01 9.8207908054268866e-01
      -3.8682826591396685e-01 4.6917102077210021e-01
      5.4262768318851440e-01 -3.8103741560318943e-01
      -3.4686831666604118e-01 -1.3094174842972381e-01
      -9.0876474911253369e-01 1.0844802017469239e+00
      1.7363192505706304e-01 -2.2802839293793437e-01
      -1.2328119040205818e-01 -4.3298826082024777e-01
      -6.1160608492736457e-01 4.0124595985910211e-01
      1.0632881366453679e+00 1.7774206540338643e-02
      -9.0252695848546871e-01 1.0621717519219989e+00
      -3.9674581204505288e-01 3.1708435916829883e-02
      2.9703189077418812e-01 4.1444324958583412e-02
      7.8898404603936600e-02 5.9644126488725535e-01
      -3.0264095707332023e-01 4.9356868293821610e-01
      2.9432588701416917e-01 -6.9525810068092719e-02
      1.3490430838306786e-01 -6.1568114201120683e-01
      3.4467903352297123e-02 2.6969491420550096e-01
      1.1065718650652426e-01 1.3195410312192854e-01
      -3.3805210690071519e-01 -1.0882123795304840e-02
      -1.2954005345988029e-01 2.2097427564164984e-01
      3.0150674777551761e-01 1.8682815519347926e-01
      4.6095603744606745e-01 -9.4522139639883562e-01
      3.1870653241750557e-01 1.0077457324449919e-01
      7.5764532616725513e-02 -3.1586683069815691e-01
      -1.5221750769173520e-01 2.1671492616746202e-01
      9.1145039334421341e-01 3.7945229669852282e-01
      -1.8410789019094623e-01 3.6049871694005775e-01
      -5.2288494304514732e-01 1.8966288783077637e-01
      8.9850818454277281e-01 -2.0693285440725767e-01
      -6.2502918874673974e-01 -7.6470206800545573e-02
      -4.8790828707423595e-01 1.1777983466627212e-01
      -4.9499699279068243e-01 1.4030673347990322e-01
      9.6311338592052143e-01 4.9603426469110784e-01
      -3.1191835626681674e-01 -4.6197427827982523e-01
      3.4508154750019276e-01 3.2762237028941754e-01
      4.9761891649777928e-01 3.4769449345395503e-01
      -9.0162140259759854e-02 -9.3938915732772030e-04
      4.6261987284403583e-01 2.4864954914031723e-01
      1.0764040752063532e-01 -8.6791348472342544e-01
      -6.5054487835984531e-01 5.9145783253919271e-01
      1.1601329190670819e-01 -1.7172989082678949e-01
      2.6643462901043750e-02 2.7862677325092605e-01
      1.8112562842118290e-01 2.6575009280724859e-01
      9.3564313643567612e-02 -1.2311846912417763e-01
      5.2306781794466739e-01 -4.8544148426438324e-02
      -6.6450889422081061e-01 -4.7942372974039177e-01
      -1.7626181160709364e-01 1.9976329813277380e-01
      -2.7167787308630220e-01 4.2456558641859793e-01
      -3.8394824069727523e-01 3.1494930152661837e-01
      4.4146230021855894e-02 5.9077356348458987e-01
      -6.5759420034201854e-01 -5.0097136584387403e-01
      2.3795298736139725e-01 -4.0467017391611187e-01
      -6.9565685649358522e-01 3.8410248988991247e-01
      -5.9837314909720030e-01 4.5703965126246543e-01
      -3.5485058555200877e-01 8.2099792221067345e-04
      1.7077270122292204e-01 5.0203008689228679e-01
      -1.0869813126506459e-02 1.4015666908171157e-01
      3.2782753357576194e-01 4.8804090354915841e-01
      -4.2432757163370871e-01 -1.7606633821515796e-01
      -1.9226726719170736e-01 -6.4870103222837938e-01
      -3.7014831328802195e-01 4.8325464624742734e-03
      -2.6211517457023115e-01 -9.6030155255637772e-01
      -8.9482021288302060e-01 3.8476834608406806e-02
      -8.4074145847944015e-01 -6.5201443933649372e-01
      8.8572565530219763e-02 -1.9691284994362729e-01
      -5.6695125041757770e-02 1.9080630899151871e-01
      4.1896949010290457e-01 -2.4953022217995385e-01
      6.6700731048901207e-01 -5.6853876102531986e-01
      -1.5333243821601253e-01 -1.0534731536960554e-01
      -5.1130971613613918e-01 1.1132135350306416e-01
      1.7094428243044446e-01 7.1089541695728153e-01
      2.8899351657000000e-01 -3.9126264107140585e-01
      5.7409303513248833e-01 2.8650022096277611e-01
      2.1861977931966942e-01 -3.5838354713511783e-01
      3.6201211139653394e-01 -7.2691674979770540e-02
      5.5598866478839777e-02 1.2922413819246006e-01
      -6.4927073532068547e-01 -2.6711392642956483e-01
      -4.8495506934303301e-01 2.5310624895665423e-01
      5.0041356615027610e-01 9.5622298881374457e-01
      -1.2325813461036081e-02 4.9744380637789942e-01
      5.9570733245349605e-01 -3.5239914357335395e-01
      6.1713996410791047e-02 -1.9134005011521760e-01
      1.5936887836005256e-01 3.2980065765361055e-01
      -9.6259028121793822e-01 2.3705722226821083e-01
      -3.8043587904562065e-01 -5.1694451709882039e-01
      -1.0412268105474871e+00 3.4347496245311399e-01
      -1.5038864412057018e-01 2.0888235483327813e-01
      -1.0605190811844446e-01 -1.2847779440244587e+00
      -5.2342326355116964e-01 -1.0359776221159782e+00
      -2.2864477461129007e-01 5.5270086434331678e-01
      -5.9228928178522579e-02 6.0370029855448037e-02
      6.8857307643255228e-01 5.4991431338866636e-01
      3.8218734192454952e-02 4.0043499676441385e-01
      5.6133239244211808e-01 2.6647572024222074e-02
      4.4124602176881256e-01 -6.7902242286738496e-02
      -2.6664153841919530e-01 -3.8457754072846267e-01
      2.4152213640439968e-01 5.3066089527942351e-01
      -5.5971303671177208e-01 -6.0561660028955699e-01
      5.6983009383927141e-01 4.4271004224971344e-01
      -8.5265415749037843e-01 -2.0567139085778047e-01
      -6.4807540436431266e-01 6.0067906152155892e-01
      4.8575835425298669e-01 -6.3346131373005432e-01
      -2.0214760612525882e-02 3.0716859972724703e-01
      3.3975130447097257e-01 8.3052082908146307e-02
      -2.7680015654365919e-01 1.5378455375835259e-01
      3.0927843127504590e-01 6.5678299281234764e-01
      3.0594084076328593e-01 4.1701686635277457e-01
      -1.3202524117744485e-01 -7.2801238050386885e-01
      -3.5343378057901453e-01 -5.7169972846083916e-01
      -6.5399110217501477e-01 4.9092479168320352e-01
      3.0343132041517767e-01 -4.4212230273041392e-01
      4.9658152614873691e-02 -7.6918341331925744e-01
      -2.7902451034988403e-02 2.1326019252085435e-01
      -6.8038981491967354e-01 -7.2474376423748332e-01
      -1.0708346465203279e-01 3.1546350957621358e-02
      -3.2746867989967948e-01 4.2559082237524237e-01
      -1.0334084793940931e-01 5.1652526484198946e-01
      9.4231766698511921e-01 -4.5234277448276200e-01
      -3.1273136652898209e-01 -5.0558107761644189e-01
      -1.9888653563516015e-01 1.5789853199427027e-02
      3.0937920472527691e-01 -2.3638926477126776e-01
      -2.0559333942774957e-01 2.8012686145975529e-02
      -4.0399857841875297e-01 2.2015863705200270e-01
      -3.1328991341984969e-01 -2.2908164659587432e-02
      -1.3926717894269791e-01 -7.7597025314364898e-01
      1.9772905635146504e-01 3.4497076084084793e-01
      4.1030802970779917e-01 -4.5475900394505619e-01
      3.6793180044478468e-01 -4.1671644137617192e-01
      -3.8263311048861087e-01 2.3125381703918424e-03
      -6.3835061462046727e-01 -1.9934154873906651e-01
      -3.4312083438878642e-02 -9.5302347328860448e-02
      6.6618787145888425e-01 8.3880840064920081e-02
      1.0623721483269128e+00 -9.9336790882816578e-02
      -1.7383387418526386e-01 1.2412571977723219e+00
      -7.0461840415372332e-02 3.0977723991149125e-01
      5.7137703356678338e-01 1.5076496618541418e-01
      -9.4690217344560734e-01 -4.1152089272936554e-01
      -2.7009891509472139e-01 8.3403521188725155e-02
      -8.0167960915478509e-01 -8.1075182087412012e-01
      -8.1353398135936206e-01 3.0951526729494760e-01
      5.2406977317460368e-01 3.4118616970577959e-01
      -2.2032534278854415e-01 -5.0269947986841967e-01
      -8.5384173787035320e-02 2.0068294416629348e-01
      -9.1687808874388266e-02 3.7667596831971706e-01
      -4.9861636824721683e-01 1.1441311440147352e-01
      2.9204475426714832e-01 1.1847633790715975e-01
      -4.6877969982166873e-01 -1.2517193257890052e-01
      6.8281280548989698e-01 -3.9583488644127013e-01
      1.0830002990616157e-01 1.9631061004935232e-01
      -1.3793783197203634e-03 -5.3749913129429472e-01
      -7.9165041229587577e-02 -1.3308450668590341e-01
      1.7944771623870109e-01 1.3263692659091186e+00
      -6.2869629100880753e-01 -1.8138112627596645e-01
      -2.0004821159760863e-01 4.3274649980565033e-01
      1.3872610280990558e+00 -2.3694310460056678e-01
      -2.8870203612814571e-01 1.8843292823142896e-01
      -5.1316805776300867e-01 -1.8311710961711461e-01
      -2.1266772703225179e-01 -1.1697073178974846e+00
      -1.1756669282383989e-01 1.6521563917515691e-01
      -6.8647922080203747e-02 4.6596416558959097e-01
      1.0841064814019301e+00 4.0521222358149112e-01
      -5.5497497970799636e-01 1.1426561774188204e-01
      9.0789913421099433e-02 1.4078809231656456e-01
      2.3334140637394862e-01 -3.4926413345856033e-01
      -5.5764216531801625e-01 -1.9279665452478884e-01
      2.3779561645164654e-01 2.2322456184013167e-01
      -3.0879495355946498e-02 -1.1805308654168419e-01
      1.6071078172868233e-02 2.5428145268780578e-01
      -6.7912112270671357e-02 1.1400643955683029e-01
      -1.0337617977632241e-01 -1.0439772598891100e-02
      -6.6164787062261521e-01 -2.0663736074453540e-01
      -5.5774102377536003e-03 2.8941049690905596e-01
      2.2121067985064391e-01 -4.2989405734477393e-01
      3.4149782430146569e-01 -2.1338157630244547e-01
      3.1355772789694147e-01 -7.3075261575244979e-02
      1.8677789965759409e-01 6.4617583017447267e-01
      -2.1823280096553672e-02 -1.3876753290570723e-01
      4.9596039616324322e-01 3.4237170176554887e-01
      4.2313691545557565e-02 7.4055222702702997e-02
      6.2684035201845234e-01 3.3259372031521511e-01
      -1.2017058360241248e-01 3.0155769076792222e-01
      1.9604734049389330e-01 3.1199574522823481e-01
      -2.7695200726633529e-01 -1.7476861596188792e-01
      -2.5340991822439873e-01 2.1398627064040579e-01
      4.3269229081761571e-03 -6.5613717618113698e-01
      6.4019525664202159e-01 -3.9977750573436122e-01
      3.2499628117120966e-01 -6.0559732244703934e-01
      6.0633833599687514e-01 -3.4536554437507538e-01
      -6.2842662578975905e-01 3.8333336415495467e-01
      3.4353012552009743e-01 -1.1479604793066978e+00
      5.6423041603103274e-01 3.2574749827176558e-01
      4.1233804779945116e-01 -8.8166278203238280e-01
      2.2349367547067520e-01 3.1664562263664520e-01
      1.3884231017648838e-01 4.4296402486542974e-01
      1.1493294742242788e-01 1.6529204778423030e-03
      -3.8812741324709844e-03 3.5700907761118645e-04
      -4.2975579021476192e-03 1.2274405470703365e-03
      -2.7871424820336459e-03 -1.5621025888476951e-03
      -3.4705055191155596e-03 2.1093000530228116e-03
      -2.3984492599307431e-03 8.7502177443098844e-04
      -1.4864873627101365e-03 3.9967134122413017e-03
      1.6656789399533151e-03 2.0000656046667616e-03
      -3.7043768189726103e-03 -4.1675666416557114e-03
      -4.7240899819650743e-03 -4.0916451605178782e-03
      -3.3380691256143856e-03 -2.5496772066360357e-03
      2.5760463135279690e-03 -2.0620705592788260e-03
      2.9890668696643898e-03 -4.8971451280415603e-03
      2.0788413443818274e-03 1.9964603388994838e-03
      4.6298942885903260e-03 -3.0111745125735146e-03
      6.6423927945540582e-04 4.2964139916167992e-04
      1.8362965694475560e-03 1.9610532752314088e-03
      -2.4043865921132535e-03 -4.0522469595514511e-03
      -4.4971860293686102e-03 -4.1479591223635296e-03
      1.4638470624562538e-03 2.1907333569974106e-03
      -2.4674207309518022e-03 -7.4677069528839479e-04
      3.6892683603479528e-03 -3.5573608016322826e-03
      3.0516826893499426e-03 2.9205014521612319e-03
      -3.1727059667993650e-03 -4.8110581834946087e-01
      8.7738033280337135e-02 7.0034590696391075e-01
      4.8559588916446528e-01 -2.3544946271666281e-01
      -5.3828094377516478e-01 -5.8281584223759209e-01
      -2.8870923946420135e-01 -4.5911312615646854e-01
      -1.9808027199048152e-02 1.3122341367446416e-02
      5.3268712881915259e-01 -1.8792798449833134e-01
      -3.7805412366474139e-01 -4.3453268963475500e-01
      -6.3323403603476003e-01 -4.9999802026036828e-02
      -1.4812913608759054e-01 -3.2624820966835916e-01
      -6.0144291200813704e-01 -3.7892486531438113e-01
      -7.3732009543085386e-01 -1.4700245851937768e-01
      -8.9763247042777175e-02 -1.5824633717401357e-01
      1.9373031501042340e-01 5.8994040121010782e-01
      -5.5286864448574662e-02 4.0088864869830432e-01
      4.9436004566856440e-01 -2.3023274973466391e-02
      -5.4859342297623914e-01 2.1883324299508647e-01
      -7.2415798649355989e-01 4.3834966303852346e-01
      -1.0340420677464342e-01 -4.5389300741245497e-01
      4.7433446664180351e-01 -2.4609936929726223e-01
      1.9099927252288237e-01 -2.4973645371287162e-01
      1.1010432542779661e-01 1.5366639404341101e-01
      -4.1204770946469299e-01 4.1319492413966258e-01
      -4.1751582816687799e-01 -2.6778968549558801e-01
      4.7855421447591073e-01 5.4476951141563167e-02
      2.3752863922894835e-01 1.7018234182543340e-01
      -2.0690409021754017e-01 6.3582966765995708e-01
      -6.1081834194733242e-01 1.1501199214171871e-02
      2.9514975664876325e-01 -7.5482643179037534e-01
      1.5949889994393972e-02 3.3475307237858881e-01
      1.6018013766675560e-01 -2.6927451080790965e-01
      -2.2116744605894503e-01 -2.2312096807416204e-01
      3.6118436924173242e-01 4.7446549882325401e-01
      1.2085546193062940e-01 -3.0263043432456266e-01
      1.4340971547128420e+00 -2.8099053222614852e-02
      7.1858497001185950e-01 -6.7146841925368783e-01
      -2.1190625766669069e-01 -2.9015875600135177e-01
      -1.9485861316871017e-01 -1.8057161519724638e-01
      -7.5066260437352914e-02 8.4676064916546834e-01
      8.0932162355003279e-02 2.6819139075289877e-01
      -1.9433926806755826e-02 1.9025273371382151e-01
      -1.3263501198413741e-01 5.6302798511604468e-01
      6.9140818789997860e-01 2.4431510636643092e-01
      -7.1358762739762915e-01 7.9748264546605607e-01
      1.5946496347045775e-02 -2.4935130243478024e-01
      1.1620595817220867e-02 7.8390611589891035e-01
      -8.7824246677648066e-01 -2.4818426245746487e-02
      -8.6604072999862378e-02 2.6984762964772213e-01
      1.8182283322378764e-01 6.5059021836929543e-01
      1.7375160202949941e-01 1.8588087438814183e-01
      6.1645844108688355e-02 -2.9822933723984008e-01
      3.4484433667719666e-01 -7.1429561248756046e-01
      -7.2481446653129930e-02 -3.9295503883758048e-01
      3.5055307211380538e-01 -5.4079287386614749e-01
      1.7007158542540829e-01 4.8746903728531799e-01
      2.5099969710744657e-01 -2.6506829391853844e-02
      -1.7231990007295715e-02 4.2805675716983745e-02
      5.9459696137245210e-01 -9.1851331022991500e-01
      -5.2195369168973549e-01 -5.4291603322983351e-01
      -2.0977888261990910e-01 9.1415424374250417e-02
      1.4328012528241893e-01 4.1696268131293512e-01
      5.3580955431214849e-01 1.4452316074822780e+00
      3.9932475748304615e-02 1.3701943265145429e+00
      2.9396594724235442e-01 2.2258074313819287e-01
      1.1119110425004196e-01 -4.4885401249345042e-01
      3.2552932890032124e-02 -5.7273289289424423e-01
      3.5820050574195295e-01 2.5679961690643849e-01
      2.7524570060913800e-01 5.9164738477205790e-02
      4.5172545802140801e-01 4.7928337589599795e-01
      -4.4379194294369795e-01 -2.0115404067663356e-01
      -6.8828324252186301e-01 -5.2257688394789081e-01
      -2.0547647582389750e-01 -2.6704521907126333e-01
      2.1741867198713882e-01 2.6346999109807301e-01
      5.1994525535394687e-01 -5.9661189956208983e-02
      7.4202040411487302e-01 -6.7138943364177428e-01
      -5.3433077892905345e-01 2.2396115724959167e-02
      -8.8275489613993119e-02 -2.3791576532045980e-01
      7.3660290664586117e-03 3.4902829171775340e-01
      -3.1776644172275693e-02 -8.4160018075134860e-02
      3.4957305785082204e-01 4.7569267844689561e-01
      2.1515908842079825e+00 -1.2158886774766602e+00
      4.5162259873272176e-01 -3.7017274766973673e-01
      -3.3490188926578968e-01 -9.4049249543441438e-01
      -6.2611120892402639e-01 5.1835447622547914e-01
      9.0973177999337040e-01 -2.9835904165417632e-01
      -2.1295647953330117e-02 -5.2916113495145772e-02
      -3.7211223474393346e-02 -8.6700591689025941e-01
      5.2762246088776299e-01 -3.6380097306688630e-01
      7.3752761935608452e-02 5.5995297102273134e-01
      -2.5520187582381088e-01 1.1503219264304140e-01
      -3.3849260813798576e-01 -1.5205487859026248e-01
      4.9550531088187294e-01 2.8133957012857830e-01
      1.4533061415418039e-01 9.0100515521307234e-01
      1.7921188827062851e-01 -7.6704388509020741e-02
      -3.6377574638379123e-02 1.5099693507321318e-01
      -1.1095698448105239e-01 -3.3187535905118255e-02
      1.8150149458006107e-01 -3.6543056329937168e-01
      4.8458610155939924e-01 -3.1705553083322574e-01
      -1.5701887990194205e-01 1.7185492195288485e-01
      -1.9766348650907012e-01 4.2082367536821141e-01
      -1.4346453980322929e-01 -9.4077329254090181e-01
      -7.7885881989598227e-01 1.7452034531143762e-01
      2.6907770522872015e-01 6.0038189015650216e-02
      -8.7764784202404966e-01 -1.0323617544941686e+00
      1.7300279697575455e-01 2.2608221948788543e-01
      -3.0215783899766219e-01 -7.9066745782648704e-02
      -2.7168101289529656e-01 9.0670640642739075e-01
      -1.5632279925717255e-02 -7.4809648590115874e-01
      -1.7780027344276667e-01 -2.8686822091658654e-01
      4.7087267875561285e-02 -1.2510457875672214e+00
      -1.1282785594348180e-01 -7.8725136145097829e-01
      2.5379897376232857e-01 4.1066039404151328e-01
      -9.8201916902509623e-01 -7.0109851749544883e-01
      -3.1122311926739737e-01 6.4282377884428588e-01
      8.0325196385151620e-02 -1.2276615992021007e-01
      -1.1007668738453287e+00 5.0876017913521798e-01
      -1.5694939879296925e-02 -7.3182374363523950e-01
      -1.9133513480829636e-01 2.1434504657832756e-01
      1.5455081422049288e-01 4.8756532710754391e-01
      -1.6490984621704424e-01 9.6058993054857780e-02
      -3.5226575263030863e-01 -2.7547388571414461e-01
      6.7982010804858934e-03 -7.5904681729616930e-01
      6.5574901678547973e-02 5.5566128312790453e-01
      -7.8258545296290311e-02 -5.8002191154703475e-01
      5.0560549110534003e-01 -3.5613762072366095e-01
      -3.3156197259380799e-01 2.4165762940233507e-01
      1.3196288457554337e-01 -7.3828984830109534e-01
      5.7939382040612408e-01 3.1203758505777229e-01
      -2.1547826057155722e-01 1.1715461055202718e-01
      1.2804028032593597e-02 2.1433006602533100e-01
      1.0834183883893285e-01 -5.9487606108229185e-01
      -2.1727132641666547e-01 1.5447795504136361e-01
      2.4398954052870064e-01 2.1418690058781589e-01
      -1.6882985586165949e-01 -1.2108112382520937e-01
      -3.2320384652987250e-01 -1.8472727845447798e-01
      -1.5955232441481493e+00 1.3134803827770039e-01
      -4.8880042627007025e-01 7.5586808027550773e-02
      7.7081414748990018e-01 -2.7672936479363552e-01
      -3.1087182352090087e-01 5.0167489405335675e-01
      -1.9134967490368704e-01 6.0606108018854382e-02
      -2.8457967361391689e-01 -5.5274662335506743e-02
      4.8431826174854248e-01 1.3192749840407894e+00
      -6.4860667138634709e-01 -3.3556618794609261e-01
      2.9580798970101230e-01 -5.6551193745626105e-01
      -1.9938365435805269e-01 -4.7082617110202063e-01
      -8.0999240891788740e-02 2.9468927540447130e-02
      -9.1938160997667412e-02 -8.7580699825058395e-01
      -8.0716097482153179e-02 -2.2611775910886142e-01
      -2.1997193307540694e-01 -1.1382997859441375e-01
      -6.0002570072965100e-01 -6.6272476121646842e-02
      1.0441676778590354e-01 -3.7531444865190777e-01
      -2.3951470279930895e-01 -6.2049563413973108e-01
      -5.0999662402233137e-01 6.5822647493700726e-01
      9.6130663398122373e-01 -6.1831603352346032e-01
      -2.3887830767070850e-01 7.8537381821848787e-02
      -1.7642567254157718e-01 -1.2447032756906672e-01
      5.9334680493312864e-01 1.8684228484501239e-01
      -2.8863930460045190e-01 -2.7679724462821419e-02
      4.7694199579427948e-01 1.2695178905716592e-01
      2.5669933931477112e-01 1.4437696272141448e-01
      2.1225669512085904e-01 -1.8427722545567442e+00
      3.4558974245393233e-02 3.2740184405261386e-02
      -5.8617722687657614e-01 -2.2389118610672393e-01
      -2.3442695898517790e-01 -4.0533902461834237e-01
      1.9162351265931968e-01 3.7064372278341817e-01
      3.1932996091329285e-01 -3.0361749415577377e-01
      -6.0830762373164739e-02 -1.5127562173522160e-01
      3.9974273900926527e-01 6.5533722358092891e-02
      3.3510745997787372e-01 -3.6600566273005875e-01
      1.0026353253928823e-01 4.0211603991026945e-01
      -3.0055907539380156e-01 4.2362820466656814e-01
      -1.2076142103780557e-01 -2.8641932995895084e-02
      -8.4132554611888855e-01 7.7197047186031917e-02
      4.4971576810954406e-01 2.5135585859269138e-01
      -2.8627859970366737e-01 -6.8526502757925456e-01
      3.9893038479238807e-02 -2.7390544551041557e-01
      5.2580036003542130e-01 8.4450743598724987e-01
      3.1025558624635091e-01 1.6180744787439183e-01
      -5.8645357359673933e-01 -3.4750898054595974e-01
      2.4307760108155767e-03 5.9615718110266225e-01
      -6.8481551310945832e-01 2.1852151082327406e-02
      -1.4935374308832455e-01 1.8246156390270427e-01
      1.1029587380908162e-01 2.1167444966834678e-01
      3.4650600723691588e-01 -2.7545755915096659e-03
      -3.7414575261584149e-01 4.9354975851755517e-01
      -1.6787235787844225e-02 -3.6011252999373944e-01
      1.4864141159646460e-01 -6.9827295717249882e-01
      -3.2185159127674423e-01 2.5703412893848493e-01
      4.1322147899574807e-01 3.0483250344492469e-01
      3.3153308106830689e-03 5.1038861342551933e-01
      5.4329695087679652e-01 3.2617378717436613e-01
      -1.0122486505291193e+00 7.2565915264766478e-01
      2.1493006023212249e-01 4.8875298059122646e-01
      -3.1134900125496801e-01 -7.4904653733442794e-01
      5.0847711183661071e-01 6.8166257424044041e-01
      5.1634377653642272e-01 -3.0917598041527772e-01
      3.6246362560754052e-02 -4.1316776837690983e-01
      3.9164014311974210e-01 1.2840875740098670e-01
      -4.8198593273218032e-01 -6.9187828301350673e-01
      4.2643493133156513e-01 -1.9126146622242461e+00
      5.6406667026663915e-01 1.8362159744383927e-01
      -5.0201610955608833e-01 1.2706312488917155e+00
      2.8750869834313203e-01 -8.9730468689213216e-01
      4.1073722712349037e-01 -5.7915938142829526e-01
      3.6590001876466738e-01 -6.1750412483829253e-01
      -5.8965790486970238e-01 9.7911447666414506e-02
      5.3941621325132094e-01 9.4146116649371125e-01
      -3.4608971815564972e-02 3.5303953551124971e-03
      -3.2338833845050653e-03 3.4139274188054280e-03
      -2.3159214789847818e-03 4.5975182403876803e-03
      2.7080100222424573e-03 4.0466221058282669e-03
      -4.6161668769466562e-04 4.3829725236325754e-03
      3.5833397082991546e-03 -2.4283072186513212e-03
      -8.0390653431918434e-04 -2.4178999988956375e-03
      2.3850611671213853e-03 6.8890425042233646e-04
      6.1292690703801649e-04 2.6017286773850961e-03
      3.7062250117462221e-03 -4.4824468740090823e-03
      -1.0122547228121046e-03 -3.3107386524703596e-03
      2.0596204185231444e-03 4.4884267842153552e-03
      1.1166312932010133e-03 -2.9766571291195312e-03
      -1.6297598876634553e-03 -1.9991704371236248e-03
      -2.6543604392599901e-03 -1.6270366860901770e-03
      2.9305391008408680e-03 5.0255698189421419e-04
      1.4461435005651922e-03 2.1483200545575195e-03
      1.2959128528969421e-03 3.0774494088922828e-03
      1.1422625735645468e-03 -2.4884129999838103e-03
      -2.0319107691804581e-03 -3.3971207800101715e-03
      2.1333793888110991e-03 -2.5408659911611729e-03
      -2.4262958214927972e-03 2.6471724827210629e-03
      -1.3258389519965105e-03 -4.6485768986305577e-03
      9.8111303445755772e-04 -1.0908372686273637e-01
      2.1412667795180038e-01 -3.3961365591111470e-01
      -1.8385752013571990e-01 -5.0100049938673175e-01
      -1.1270213131246179e-01 -7.7979282382457227e-01
      -4.9288681335308010e-01 2.8220722141935733e-01
      -4.4793997443223654e-02 -1.0366751703820345e+00
      1.7402176067885500e-01 -3.9832155859406047e-02
      -7.7784635756655118e-01 3.1847908432819894e-01
      -2.3764940105152957e-01 8.7888220084001545e-01
      -9.7690411774113239e-01 8.6674230221891357e-02
      -3.9287093511101395e-01 -4.0599610687366761e-01
      3.0920162576939286e-01 -4.2835269238813228e-01
      -2.5961915587342915e-01 -3.6163828835542816e-01
      -4.8569066316641357e-01 1.3488913533394700e-01
      -2.7180537981671127e-01 -2.0538863494651241e-01
      6.3835585265420311e-02 9.5085311552684196e-02
      -2.7049561918767179e-01 3.9726407546686071e-01
      -2.4554548983611579e-01 9.9247580654257928e-02
      3.9160459686494820e-01 -1.5111915833166574e+00
      2.4747083489355257e-01 -2.2504647231155039e-01
      -1.6807801473543346e-01 4.4547101596553833e-02
      -5.7710988893657911e-01 -4.7418368606044065e-03
      -7.1327580279498801e-02 1.0655828320602018e-01
      -7.3751723986229256e-01 -5.8815995056150550e-01
      8.2487501795286619e-02 3.6638935348121660e-01
      -1.2538055485039451e-01 3.9812358862567337e-01
      -4.1786462955552595e-01 3.0857921848515441e-01
      7.1552389898833935e-01 1.5328113538236227e-01
      5.7303599400290772e-01 -2.9975496887076175e-01
      6.0793283052013446e-02 2.4494335946731988e-01
